{"layers": [[2, "relu"], [20, "sigmoid"], [20, "sigmoid"], [1, "sigmoid"]], "weights": [[[-0.7718830879912182, 31.072217334219754], [2.0480101212888457, -1.8854724670926761], [2.047925124822095, -18.84825031212642], [-0.6697714625426086, 4.422061638307155], [45.513760777641096, 30.647650817854537], [22.451495802901455, 0.47912490628979704], [3.0762574861086356, 4.615746920904537], [-0.7252348911751599, -0.605989989728286], [0.15145490111812127, -0.6618127972627929], [17.594118605479895, 17.35999406362164], [-16.09020832806644, 1.2671186787536537], [5.474679260492008, 30.493266857179538], [-1.1265873623678624, -0.6651335767376337], [4.850512327515042, -3.7028520127102666], [28.987068902944518, 21.665107256566575], [24.011962640173596, 0.03839452977470752], [31.851729805984608, -4.866237074518547], [24.4939834454468, 14.95250119884965], [25.544774174343292, -27.77244077708489], [-0.4654452807564107, -0.17535203188808823]], [[-0.25138005144259123, 0.6852361984213671, 0.8051299557385146, 0.5205228232598145, -0.4310674429266851, 0.08270720794934217, -0.2344930582393882, 0.8557668637806207, 0.487987672514571, 0.3175686893212173, 0.2777679480599231, -0.4188579197813199, 0.8652710229212379, -1.0942615889618348, 0.0029157152929888846, -0.5503849379337049, 0.6127411622589974, 0.3114062110795657, 0.844059679801106, 0.8698960427669518], [-1.3617516413311515, -0.0349915014016721, -2.0829779522106144, -0.37338261615100615, 0.39591273872491317, -1.0977210263562367, 0.05533194485315152, -0.10108338148919979, 0.7288162222573243, -0.7473992133825001, -1.7651011880827707, -0.8216178516433165, 0.15448799222771814, 0.1355042491292183, 0.6006747779596765, -0.46097123181584354, -0.4405587698257757, -1.9438820193634812, -0.1668793161480799, 0.8583201937422482], [-0.560663518318549, 0.8969111575397655, 0.8109975705028742, 0.4494951634433939, 0.3354145269882654, 0.17542042177706982, -0.33202780628515577, 0.2737849768194237, -0.9859317046487173, -1.2992671354334862, 0.9140517544612138, -0.7623309649625484, 0.4690320985732462, -0.30412283675969387, -1.0713466561573357, 0.5454822148571967, 0.7134287797266439, -0.7675650257980474, 0.9648619495856988, 0.3059860565431544], [1.399083627084756, 1.0828415775415885, 0.5074879457306726, 1.1018293984416787, 0.24042419289719133, -1.3023371280307638, 0.7625981678520819, 0.6224644178309588, 0.6314128739011899, -1.8245936671437875, 0.5380439803719667, -0.2219904316764688, 0.6866479812578116, -0.5006876265948971, -0.31430742398798883, -0.17485215529393017, 1.2027142618233508, 1.3787823617284536, 0.6550339317803453, -0.44809695921596787], [-0.9412805649448771, 0.0826229097163717, -0.8256649364018032, -0.28286264548301665, 0.8793382332665214, -0.8759554994002114, 0.7967047014679217, 0.9070407871847985, 0.4723093675192096, -0.09836856402479477, -0.04619187569159762, -1.0911363960623064, 0.33217234503669385, -0.35637347464069224, 0.8605973985000348, -0.007947001715423507, -0.29749379441584034, -0.6600692203916745, 0.07765673957873992, -0.43946722472141664], [1.1860895061640588, -0.762501466046102, -0.223858020011793, -1.6396233244974392, -0.1620280369260626, -1.203426594175919, 0.012492368095963578, -0.6963617185489546, 0.7974838275170473, -1.2670131422475572, 1.9850416207277377, 1.2668956432051073, 1.0350055026110114, -0.07610849570702061, -1.0654493526674873, 0.3669271493171202, 0.13436371759877985, -0.28273891960551656, 0.9143484059992905, 0.9412868743651799], [-1.358553051558545, -0.1994894442041724, -3.356587854246861, 1.3343331244886434, 4.181809339845652, 4.603336119268134, 2.298191941518983, 0.9396764379546768, -0.3932931186117749, 5.044616132590782, -0.5717621731195776, -2.017083495285985, 0.18063262100369137, -0.72316246683627, 2.1189150962792307, -2.028691949186961, -1.74224042714691, -2.140111172586683, -1.7878049337202964, -0.06529953932253295], [0.7158302336532716, 1.2131042186710885, 2.452228531099432, 7.642752698779281, -3.2479517487352774, -2.884386846725685, 5.334719466744302, 0.45534506387839935, 0.8251598878021433, 1.5347818853612492, 6.128937998718774, 2.051346531024225, 0.5372361715733303, 4.927096952474266, -2.344547235951827, 0.8591091444141319, -0.13082965607522534, -1.026240765155456, 1.8047429612470132, -0.3055616712167656], [-1.2926153683728587, 0.1577509407770641, -1.7834509744239775, 0.2411841044502554, 1.1159726202771305, -0.6379422780105259, -0.9973951904239167, -0.8766257600526636, 0.2691204980483477, -1.0588975496136293, -1.5740742659482847, -1.7985147078603454, -0.7412618962959879, 0.3073978708194136, 1.234801415124775, -0.8845127949914938, -1.16914679604555, -1.3277331580876885, -0.2206522583784679, 0.38442575386200556], [-0.5735808317338867, 0.4874247241580876, -0.3072195889018359, 0.08649266730438757, -0.415836661066986, 0.8385060806428983, -0.41931410336579994, 0.43398939715004636, 0.6105291576349433, -0.36315663426476763, -1.3265530149879743, -0.9511586609139915, 0.9189423665309502, -0.9167583242788491, 0.5853076510802581, -0.10579749497018104, -0.5282043475031005, -0.2398564449641067, -0.0020806012172159224, 0.49014761387756645], [1.0101312320828795, 1.1393992813179308, 0.7670169954760455, -0.5093569843618734, -1.1473623418480998, -2.68265690164558, 0.28394068322227606, -0.9102745247997742, -0.7688315163895082, -0.29945245081880756, 0.717960090281, 2.761789566820055, -0.8211918623714786, 2.7986834090095423, 0.7837681622077151, -0.34325685627853497, 0.12776603532934935, 1.4399246280117375, 0.8550629475655814, -0.6779913919737542], [-0.9808729056239531, -0.3298132245307733, -0.35248108339383794, 0.7252097423849205, -0.5302667078077927, -0.6240216737107483, -0.23352483164897817, 0.16171288183904078, 0.5001208318788244, -0.9511812725878708, -0.6697933929733728, 0.4391222648862664, 0.03187001999586843, -0.48368858130715253, -0.8725697629084587, -0.572398069534766, -0.4148367229785181, -0.03765990126354097, 0.3518576954742532, 0.5307810149364476], [0.559705572573029, 0.21423702497144362, -0.18370468189126835, 0.5293716768045275, 0.7313126449402412, 0.040844109524916766, 0.7412157660947218, 0.29651540224187056, 0.08378813822199961, -1.120874981408053, -0.38102754876023737, 0.30924526860341445, -0.8189966377192038, -0.6853812564741262, 0.6356988387914653, 0.4896847319280278, 0.32753193597274216, -1.1724708196943234, -0.7748875934444909, 0.2210224104163037], [0.17451832797045097, 0.43249575978632954, -0.46710628268932436, 0.6995387775155053, -0.15590178946447225, -0.42169669639767177, -0.8962591906674408, -0.14973544832789623, 0.36220144266000726, 0.5150558660343431, 0.576797508352364, -0.162222400646182, 0.578233692769499, 0.030168387994042926, -0.582508155103058, -1.0089091046284184, -0.7435921603663498, 0.1863550517851811, -0.6196025946868644, 0.3290195755618354], [3.510863854269386, -0.46167585488702334, 2.484346070630216, -1.8705201479318752, -0.6685148009536197, 0.7025736242992898, 1.9382783427770178, -0.35580185076721166, 1.0488677278069123, -3.0814815883595044, 0.7555819516401989, 3.396800496717407, 0.08081626358989667, 1.175981623911705, -1.8384393135031847, 4.64736401460561, 4.410923353068861, 3.718840448331086, 2.090765761308293, 0.6912469314095698], [-2.1612317284621674, 0.4372395593877379, -0.9435187438494143, -0.11039567080516131, 1.2557432643580562, 1.8396006969813063, 0.028728740187355134, -0.09451176991464139, 0.8460281724611158, -0.298513238161154, -2.1576214131249354, -3.1161444649828756, 0.47571909063949513, -2.3875427069632122, 0.9775382846189091, -0.6813603319233268, -0.8088633765933715, 0.156474927568679, 1.3377489135979062, 0.47892352089573], [-0.5802703903751855, 0.39363014744924096, 0.40391314028511754, 1.2670166610484959, -0.42565605353558267, 0.13669006560727498, 0.5222452704385957, 0.3103623428205971, -0.6955364748232636, -0.08958167664606521, 0.04966919946073142, 0.62174187460008, 0.5641829808313411, -0.7941993263321184, -0.8212081994926301, -0.5033923626248327, -0.3079249620202847, 0.7195909505588883, 0.32626412825569595, 0.2702134617613777], [-0.5564051884458158, -0.9874900745710885, 0.016518408795216506, 3.0039876014547744, 1.0836264699614238, 2.934528885479658, 3.62971236191467, 0.9611165398083128, 0.4660116391823101, 3.1846525819312452, -2.059133558050642, -0.8108984267681312, 0.35004441559920335, -2.305829745952982, 0.7553424604605532, 0.4041340734375864, -1.5293992832031205, -0.2920731848625203, -1.0347585067857608, 0.5687617573480876], [-1.1012277866654432, -0.31028197779794386, -0.7885809657589767, 0.022426202601127057, 0.2627853058427124, -0.31507398680624055, 0.5655844778748088, -0.3025700524244762, 0.9676763452029493, -0.19650568810583205, -0.5764191334925362, 0.19513988891510603, -0.8617761057965704, -0.7195382816049777, -0.3776853632457466, -0.8219148823894432, -0.3383301552243791, 0.13653119402470962, 0.8031716432453898, -0.9703540354568921], [-1.1174568079210767, -0.15463646352421032, -2.610181111838182, 0.661094181361364, 2.7130552189508403, 3.835859587597349, -0.1974164485737526, 0.16336872792370438, -0.6118278548048899, 2.6884533786699247, -0.8675710291688017, 0.2792992976840414, -0.024198353977070503, 1.6024321776420654, 1.1978815632613797, -1.636013242599734, -0.8135806359624337, -1.1194554137023034, -0.9788103342880006, -0.16442779091857015]], [[-0.01963044823040502, 3.1159127446288406, -1.1486957261739574, -1.671741455314358, 0.8684642296739485, -1.8622830152933239, 4.958483658564889, -9.08771443301692, 3.3026958104596305, 1.1885256871622714, -2.6934970466474764, 0.840577042533375, 0.13693298932524958, 0.3482493530539312, -7.437388288320943, 3.791738718792271, -0.32112972825706415, 3.8068302479120195, 0.7919438552131746, 2.998122188327377]]], "biases": [[-49.16977094206255, -4.7980375451067365, -0.8321115056565573, -16.124828668907107, -63.017581551059, -53.21217101431093, -26.321940383374148, -7.809735489758681, -9.530069527938352, -53.42039024348668, 0.6348940731186551, -53.301218207174315, -4.239081241388538, -13.670426284241659, -58.78191357275209, -41.22870868116331, -37.61691319069823, -55.7355677313174, -12.427122780119996, -7.29843297422156], [-2.1177846508205302, -0.12077220059424622, -1.6909699902015645, -1.7107018679219879, -1.7732123540017943, -0.9210522307130962, -4.299150305173391, -1.045985899150322, -0.4086302058543085, -1.0575754259315935, -2.333608122369907, -0.36983634673638105, -2.403635048558561, -1.118046594832574, -5.307571487459752, -1.0486939921193317, -1.730768879359472, -2.8487793411888824, -1.401326611310406, -3.913000296479023], [-0.5761817066752222]]}