{
  "biases": [
    [
      -8.49649463557105,
      -14.288476372808164,
      14.091257207907763,
      7.542624743892095,
      -29.55357755619902,
      -16.123162704843207,
      -8.722015836607161,
      0.5876270263663166,
      -59.07864682886936,
      -74.0886356603453,
      -43.21399018958595,
      -40.97926855745478,
      -16.80005413148452,
      -26.227110124191448,
      -16.02666343547391,
      -18.358429612371456,
      -81.31580663183013,
      -23.05318658644423,
      -25.619424884644893,
      -42.094130582067
    ],
    [
      -2.93856723552454,
      -5.569460123100551,
      -9.57958640221636,
      -1.1907936539881159
    ],
    [
      1.2625490457341202
    ]
  ],
  "layers": [
    [
      2,
      "relu"
    ],
    [
      20,
      "sigmoid"
    ],
    [
      4,
      "sigmoid"
    ],
    [
      1,
      "sigmoid"
    ]
  ],
  "weights": [
    [
      [
        -0.8267917778608067,
        -0.5517086366753939
      ],
      [
        0.22326235110331671,
        -6.064740956941325
      ],
      [
        4.015303689588699,
        -18.284923189209668
      ],
      [
        -2.324355460028184,
        -7.130397621330554
      ],
      [
        8.611864139962671,
        -1.0615984503312128
      ],
      [
        -3.6651516922150393,
        -0.019307957895794783
      ],
      [
        -0.3168712695278797,
        -0.4350117947155795
      ],
      [
        2.358494469084162,
        -6.478758125549147
      ],
      [
        35.86868325743747,
        3.6709390224352965
      ],
      [
        45.933200838670274,
        -1.3977100312064277
      ],
      [
        -42.96892418735251,
        44.90287366698523
      ],
      [
        12.95626736916025,
        8.939589494237381
      ],
      [
        -14.367609468925696,
        6.310770649137325
      ],
      [
        33.09976951953485,
        -14.84458705877763
      ],
      [
        -0.10306212877077839,
        -4.022787939145484
      ],
      [
        8.36476693243075,
        -20.185494988220313
      ],
      [
        17.16253240125522,
        39.18754561535169
      ],
      [
        8.083630500612937,
        -13.149096044077192
      ],
      [
        -0.38384446075107104,
        6.971209951946182
      ],
      [
        21.77083213889798,
        13.073857451532227
      ]
    ],
    [
      [
        -0.602140460001854,
        -0.7007812313223154,
        3.188927724419398,
        0.19142321504420048,
        1.9862327280345655,
        -4.189873017709781,
        0.2905103350830248,
        -3.0569205527616554,
        -5.733388745330342,
        -2.4053139867808953,
        2.436198234029931,
        7.473956990141611,
        -0.6880923401693685,
        2.6397421700436268,
        -0.48626382593246886,
        -4.447809316639019,
        -3.552837287493667,
        -2.91368616787079,
        3.885680721740333,
        5.216166198956541
      ],
      [
        0.5868459767669509,
        1.648495075062973,
        2.7682916069576526,
        4.268402892126257,
        7.118626201522383,
        5.1935380444152885,
        0.6254903280849894,
        -2.881120327996227,
        2.757960609451677,
        2.3389528407074676,
        6.685447956855343,
        -2.072372019734002,
        4.609898533589365,
        3.204066695515157,
        1.0377267987789085,
        2.8213401247116976,
        0.708792335729158,
        1.3745605090145163,
        8.203507098314148,
        -4.349501739636233
      ],
      [
        0.753952668958678,
        0.8430452733949245,
        -5.944722253946919,
        -2.716333145639071,
        2.636968250972628,
        -0.24007560479176074,
        0.5181171912943868,
        -2.03934565211537,
        2.391148240172034,
        4.361462868149222,
        3.859476861604091,
        -0.05985962694940482,
        0.5281127018200061,
        -2.3763887218826314,
        1.0929339544014112,
        1.9152302416198097,
        7.130274181740819,
        3.2004668312158744,
        1.0440673530158928,
        3.403420505240735
      ],
      [
        -0.057586513508591126,
        0.0703510670840901,
        1.5222016616411123,
        0.5059806725510337,
        -0.2421136675061485,
        0.3044658926644149,
        -0.30216871824432945,
        -0.4348943388995642,
        0.10525846931605642,
        0.27310190869187007,
        0.24321355553332927,
        -0.23909794942694504,
        -0.15150966089602474,
        -1.012591965723989,
        1.0154128368936364,
        -0.3492045212310985,
        -1.5935509648444055,
        1.2442205405153135,
        1.1398373030360573,
        -1.4253423950938746
      ]
    ],
    [
      [
        11.160697609254695,
        -9.487399866427918,
        -8.204557581811025,
        -1.8321103507364427
      ]
    ]
  ]
}