{"layers": [[2, "relu"], [20, "sigmoid"], [20, "sigmoid"], [1, "sigmoid"]], "weights": [[[-2.392897473632132, 34.84187523658919], [1.9757609751270864, -1.7055885016111825], [2.6830505847030732, -15.944068835116298], [-0.29895802508260877, 4.497178257789201], [46.34833030835951, 26.91851132740401], [21.598764197976067, 1.327842414442377], [3.6085559975169543, 3.622331250360747], [-0.726962704963007, -0.603473180078683], [0.1522969646015973, -0.6620985053415898], [17.206229368577112, 17.617577810594014], [-13.234669183661214, 0.8455479727653038], [5.276743727586671, 30.278393406662214], [-1.0983639503335672, -0.7092544917676733], [4.265538833821949, -1.7089426325547121], [29.986019047991388, 23.867803184750844], [26.99816225737763, -1.8222339425319347], [31.581700086318286, -5.800834362611493], [24.690061190694006, 16.15201255910354], [26.323117115337716, -28.00510561872325], [-0.46732335690668514, -0.1576012636647438]], [[-0.25374919110281735, 0.6866039824450583, 0.8076020564204779, 0.5194541919828001, -0.42948864329565883, 0.08857313771184368, -0.23449602463545885, 0.8557606354139978, 0.48798664394233526, 0.31907939885658704, 0.2766823992860969, -0.42065004647119053, 0.865074050136041, -1.095722509014264, 0.006680649104202121, -0.5487738843552564, 0.6155823889065202, 0.3146445300877871, 0.849345962000661, 0.8698890389307615], [-1.637233143783093, -0.057692273833689564, -2.3288783237457364, -0.38306755133629766, 0.2659622417796458, -1.0589369885749882, 0.054630598694707246, -0.10180257573381277, 0.7287209898792154, -0.8076362422081145, -1.907295262560083, -0.8094299108644626, 0.13000870098852668, 0.1031746197033474, 0.6954645222456355, -0.607789658826101, -0.3815268859813124, -1.8779464262185073, 0.2189952107295116, 0.8575639977746564], [-0.48947525215219345, 0.8857531910702783, 0.8332936441124733, 0.4504204945339026, 0.3079746463153541, 0.10562684154825731, -0.3316249334801838, 0.2739259353624556, -0.9859178350857998, -1.3394230657809922, 0.9444567316997852, -0.7642076946770592, 0.4738535810068891, -0.28212007109578513, -1.1317098090363227, 0.5120805749748285, 0.6277287664208421, -0.8494984496889683, 0.778340749180819, 0.3061401967928947], [1.6558552252423546, 1.092927514095541, 0.5365050221708005, 1.2545933207448585, 0.37298997568465153, -1.5458545128105756, 0.7957938412632679, 0.6227366707399741, 0.6314798993113662, -1.8072864212115995, 0.5778686409944077, -0.16222827932059983, 0.694839077591406, -0.45714368454887466, -0.39187348347840323, -0.2211913134457914, 1.0979433345492573, 1.337716655759484, 0.3891579005589496, -0.44774819073727257], [-0.9767580733836375, 0.07571078068906338, -0.8478819385682924, -0.29353984569653185, 0.8550430539664078, -0.8430026956979337, 0.7942668958340737, 0.906944589095489, 0.4722958705097144, -0.1542556191586437, -0.06506715614237252, -1.0907515380058102, 0.3289278917013498, -0.38210072976687953, 0.8706746271432633, -0.060836906191517444, -0.3061500089241773, -0.6587953625709799, 0.14216595217313124, -0.43956168604760715], [1.3184345883607984, -0.7395590835381222, -0.09223259078648935, -1.6436127882431375, -0.089755547112764, -1.2818804521059572, 0.021501922398473396, -0.6959492497993699, 0.7975656574361539, -1.3857899711356492, 2.055734848116232, 1.168527993351842, 1.048182080653096, -0.0742120481945907, -1.214850737488812, 0.38923533409027894, 0.10966075472094113, -0.3443416940462082, 0.6610409589092603, 0.9417695998673613], [-1.5206768696030255, -0.02064165511254083, -3.2303079465031987, 1.3069433187166135, 4.1217268229137, 5.233866168806039, 2.3341643528437466, 0.9395131324623464, -0.39336988415157076, 4.860001447661329, -0.5156486991256338, -2.16775045353036, 0.17739376397625736, -0.6556136690262278, 2.4503770262162177, -2.0036429818391897, -1.7710955506354582, -2.2751009217992095, -1.4162947276526954, -0.06555720032454757], [0.770450319071845, 1.5033847831853777, 2.128054828625594, 8.821387779013293, -2.967347490234477, -2.669306754362088, 5.76507603287286, 0.4573848883438151, 0.8255011038204417, 1.7339341742432028, 6.656426578013471, 1.797907241437621, 0.6052815841880311, 5.644256604820871, -2.236702477322113, 1.6997751168119837, 0.618058724550269, -0.7124874286188921, 0.9271563545846576, -0.3034712572338115], [-1.6490682078372991, 0.11065860412458484, -2.0363455996943056, 0.20873175287348134, 0.997527376943358, -0.5803598458912401, -0.9977271712219848, -0.8773377599680537, 0.2690311942015186, -1.1819911251184236, -1.715445673438486, -1.800838205941608, -0.7656586852740104, 0.2206882160210191, 1.423804334262281, -1.0010981071159568, -1.0346978941770153, -1.1973320484364998, 0.24365331289821443, 0.3837051577113634], [-0.6205830143374236, 0.4893121953764658, -0.3208400214833074, 0.07027382933274692, -0.3523437651936647, 0.9619658809900167, -0.42212677028534235, 0.4337741840437348, 0.6105012135859931, -0.331793311744527, -1.3695382827504556, -0.9338521842026064, 0.9116622994726472, -0.9703085610618424, 0.7059237697304866, -0.048360233951604464, -0.42526173411675644, -0.12701034143343787, 0.2029329660521555, 0.489933936434816], [0.8513672639153305, 1.2690118534040784, 0.6781635414167121, -0.4421412212750844, -1.0801223709530408, -2.911275966197111, 0.33185289295414205, -0.9100012706835471, -0.7687437111316637, -0.13472663087721162, 0.7461887123310375, 2.6014477863116863, -0.8132376081822389, 2.9910889104252636, 0.7679985130162097, -0.13841590791127137, 0.2841111359768261, 1.5888531990847818, 0.8341226700282056, -0.6775925672510488], [-1.057883438454647, -0.33063019204601046, -0.4192478921523709, 0.7082108234251175, -0.5601314590031948, -0.6110152641129959, -0.23391723143468757, 0.1615201062543851, 0.500094628868726, -0.9659479724112214, -0.7104686635831811, 0.41973915130561573, 0.025320288743012793, -0.48580494662800644, -0.8664224910444449, -0.583853106187491, -0.38623071730152214, -0.03609326485776299, 0.4730009486789426, 0.5305819104914484], [0.5540284464091129, 0.213151314875954, -0.18586562274004395, 0.5258133958000888, 0.7282481829169641, 0.04789495865841065, 0.7392411150279187, 0.2965065885576917, 0.0837859044555769, -1.1177430185549413, -0.38164581280821447, 0.3112072246814973, -0.8192613203250766, -0.6859866460085149, 0.6414852542553277, 0.49169751434216963, 0.3316529606424834, -1.1699290184027895, -0.7717039600837686, 0.2210097640987079], [0.15288228719327998, 0.43013153389500297, -0.47717518261756253, 0.6787458575980555, -0.1740731407100197, -0.4182235620018058, -0.8965856611214372, -0.14977858831134577, 0.36219308582634374, 0.5148242971449529, 0.5678971558857658, -0.16343902813270847, 0.5768346002122913, 0.028247777757163164, -0.5799740790964352, -1.0094367075150406, -0.7433764343001086, 0.1801503893844527, -0.6016023510368175, 0.32897425763105637], [3.872328742723909, -0.40689120608996165, 2.5446642466572973, -1.4967931285965306, -0.6707485697153338, 0.7145687937722693, 1.9448195376789938, -0.3556786873225803, 1.0489668785199244, -3.3612804881510687, 0.7188029489853495, 3.578129158482146, 0.08284346120477257, 1.1980380893722447, -1.87475771555838, 4.890474742918205, 4.3355570688550005, 3.576078255187487, 1.812283130235261, 0.6910553435831649], [-2.355414889252669, 0.3958220351930163, -0.9173951471904673, -0.11767073652275804, 1.0115168997065322, 2.033384631210587, 0.02642940022952437, -0.09518568798463099, 0.8459516672509412, -0.6274335697738646, -2.3031729782780648, -3.110935695038529, 0.4524711988906714, -2.62971687547253, 0.8660545472885414, -1.0188463672537218, -0.9213957170446899, 0.08598879935527949, 1.6703387363355828, 0.4782672033794194], [-0.5573667127339297, 0.3909428311383945, 0.41187256460822536, 1.289140639702775, -0.417183989725695, 0.11778474240103018, 0.5244086273559462, 0.31040488509038344, -0.695529427567385, -0.08485376815525211, 0.05858752182622736, 0.6345330668873962, 0.5655840803577361, -0.7928049088150185, -0.8207088185296207, -0.5115385408908475, -0.3208032226581739, 0.7230556925968159, 0.28979526733404715, 0.27025739724490583], [-0.3891987680132115, -1.1020209221736048, 0.21366998528657621, 3.118625698079232, 0.9955490612785376, 3.05866987522959, 3.6735087324903106, 0.960855904125361, 0.4659043207311134, 3.144563076715404, -2.077715928537968, -0.6140704819757158, 0.3432207785640477, -2.575874126551301, 0.8752466138358511, 0.10841680678327689, -1.9769470893779235, -0.4159613558618395, -1.0450155604026796, 0.5684949666933589], [-1.144087987967039, -0.3078980590517975, -0.8312425098981482, 0.002578547666661382, 0.2651369056898814, -0.2773240181094824, 0.5635520509357709, -0.30269159137249363, 0.9676603401869587, -0.22039622938756237, -0.6018410977875008, 0.1823705356668196, -0.8659239666619337, -0.7309560646295417, -0.35722071282828693, -0.8373540889944451, -0.31120815110640304, 0.15054023210254255, 0.9277510070857966, -0.9704582005004363], [-1.172942224212729, -0.022560210561659726, -2.5616153535039525, 0.5190889401665454, 2.890397518017555, 4.229790495480359, -0.21391523998354978, 0.1632818336062702, -0.611860431918771, 2.769735352934401, -0.848734959270212, 0.18905498771955168, -0.0261840740364515, 1.65589700525509, 1.508185280648907, -1.4941744315243317, -0.6686181725030611, -1.01482500930686, -0.6142227937286919, -0.16445039935174938]], [[0.13091938246726897, 3.3704166487084635, -1.1016995530095242, -1.9275272042549507, 0.8779488613548341, -2.0410230318522165, 5.473254896083055, -10.54932015886199, 3.5483130166341716, 1.364628672890814, -2.891798212941059, 0.9482467664020569, 0.067062577159024, 0.17693837153389755, -7.43740011112084, 4.4949788883586, -0.35322892322239924, 4.292634470485889, 0.9733413710935114, 3.4400734580894023]]], "biases": [[-50.64612059633584, -4.940260769528354, -1.222222802217463, -16.68524805502384, -63.84436901322833, -53.33151659272193, -26.906843507547592, -7.813526559842547, -9.61043730710118, -54.37147363542927, 0.04502495463148066, -54.93295202427504, -4.299873882489006, -14.208517212750516, -59.5837675550984, -41.962591277754214, -38.308971821534676, -57.09945757954681, -12.884189030895145, -7.299277188586235], [-2.1225614064911444, -0.10967144862758536, -1.6999156380736273, -1.7338779426973074, -1.7718229678872808, -0.9403511112745437, -4.302822610921795, -1.1083038653748685, -0.39620258810315545, -1.056928216140774, -2.3746730090752943, -0.37131966870927413, -2.408592926799798, -1.1245110441534591, -5.374667007239855, -1.032490409913069, -1.7377184133237096, -2.8574367734273927, -1.40158520406521, -3.927319743496669], [-0.5708260191490833]]}