{
  "biases": [
    [
      36.27750936606686,
      -278.43205650511396,
      36.50144230016184,
      -81.4069873807847,
      -14.634979687240506,
      -0.4595747096817089,
      11.840715045312287,
      2.4536792592322993,
      -183.46107068583257,
      -47.48921872361504
    ],
    [
      -9.469908968909106,
      -3.353542144520304,
      -5.255707271723039,
      -2.17709376111193,
      -2.5185513755439355,
      -2.1522623370657206,
      -4.078008077398719,
      -12.126869026339893,
      -1.2573619098052722,
      -5.116980163939978
    ],
    [
      -1.880889761470665,
      -2.286212067475623,
      -2.8316843353152743,
      -2.011150696125072,
      -0.9204093826804027,
      -1.9551316037915372,
      -1.563005137131189,
      -2.08440477510927,
      -1.736383033735956,
      -1.4323467695644743
    ],
    [
      0.18486727162366728
    ]
  ],
  "layers": [
    [
      2,
      "relu"
    ],
    [
      10,
      "sigmoid"
    ],
    [
      10,
      "sigmoid"
    ],
    [
      10,
      "sigmoid"
    ],
    [
      1,
      "sigmoid"
    ]
  ],
  "weights": [
    [
      [
        -137.87100834009422,
        4.071588922667201
      ],
      [
        57.24777264616761,
        296.7711960057632
      ],
      [
        -109.24003941428067,
        12.705675558325595
      ],
      [
        0.808848073666664,
        32.947733207155345
      ],
      [
        -0.6784229574465945,
        -1.2519638217456655
      ],
      [
        17.83152000299798,
        -62.71872501610069
      ],
      [
        -20.18396227758228,
        32.637046153027256
      ],
      [
        13.848487921590939,
        -86.97328601168985
      ],
      [
        177.28612290063575,
        -154.0800338266246
      ],
      [
        1.1280014210250409,
        37.63512066572411
      ]
    ],
    [
      [
        -1.5609561527440388,
        7.4763800898418635,
        -1.1730859188421936,
        4.081247135810991,
        0.27063141130142726,
        -1.8331284277533033,
        -0.3050357127665622,
        -1.4150649992013211,
        -0.6215779205916431,
        -0.19707704351823963
      ],
      [
        -10.429210032560547,
        3.4253062153056355,
        -6.897124907573242,
        14.069348359016072,
        -0.6154631499296497,
        -4.654926917482541,
        -0.39488833628047854,
        -5.928070875749606,
        -12.038256619494323,
        -8.02043411684135
      ],
      [
        2.0598986116610227,
        2.4965292466655344,
        1.1742689212531168,
        -7.290620021523121,
        0.8169818612658565,
        3.445618096166518,
        -0.5250848614790165,
        2.2390971869175926,
        8.41994496563328,
        2.4553135903005914
      ],
      [
        3.941270023013809,
        -6.73666176584117,
        6.269685806993229,
        7.3559645414271735,
        0.18475836413113267,
        6.324620239409554,
        -0.6394049856855447,
        6.293584832132533,
        -2.7346156113986195,
        14.386715771853686
      ],
      [
        1.8710392170512478,
        -2.1053056595490074,
        1.9352265837584914,
        -5.056918913759121,
        0.34614229416804027,
        3.671618904444952,
        0.6424413794771219,
        2.0537226823496435,
        1.9924261950724858,
        5.099986841931499
      ],
      [
        0.18808301082786885,
        -0.10139231026166583,
        -1.7011596762265133,
        -1.973121397893161,
        -0.5506217641697178,
        -1.9513545024294794,
        0.06802371956846946,
        0.17524922343651175,
        -1.9415005640807492,
        -1.841696892472978
      ],
      [
        4.791387519705702,
        -5.823589830914903,
        6.745619959040547,
        -0.3819813426656988,
        -0.28697523188933594,
        1.79963700349914,
        -0.6194030651612513,
        2.8575193937906005,
        4.468649262492354,
        -0.6670098164347975
      ],
      [
        -1.0017015867575827,
        7.452456515191875,
        -2.1596195030649548,
        -1.4229382861351856,
        0.5792887845753121,
        1.4501096996407792,
        -6.1835344822434,
        1.0397528907943345,
        6.750283046780131,
        2.7151410976355694
      ],
      [
        -0.5023462637709499,
        -2.758208176633785,
        0.11166112045793829,
        0.35902991617621366,
        0.2719509789123379,
        -0.12805247930805783,
        -1.3431289964472402,
        0.6390105161798771,
        1.546909669719076,
        -0.9278664073329926
      ],
      [
        -1.2646570581940242,
        3.026575904545916,
        -1.452335692573433,
        -0.7517069623751849,
        0.5233462642140684,
        -0.9852522068730362,
        -3.8361076919902546,
        -1.2786557971638077,
        0.6127100321134797,
        -1.2483428871174178
      ]
    ],
    [
      [
        -0.08127707050060276,
        -0.6658353928265808,
        -0.9914309232323401,
        -0.09729017004974745,
        -0.8396890765524414,
        -0.12305161494515432,
        0.5613837894651745,
        0.8783135483934673,
        -0.6933314790763733,
        0.62653963535605
      ],
      [
        -0.8312095302336886,
        1.908238118172823,
        -1.287154910043732,
        -3.5024883023142754,
        0.482065934826547,
        1.1159132033654602,
        -0.5029683466611714,
        1.2836566754141978,
        0.23164709346328338,
        1.2253170177645198
      ],
      [
        0.5191920514604319,
        -1.171296245326116,
        1.1063176540672426,
        1.7583678424629212,
        1.2868803215621025,
        0.5821194432758796,
        1.5391463501430929,
        -1.8642680814480876,
        0.697839258520747,
        -0.8170366755888582
      ],
      [
        -0.2905495374847312,
        0.5530956583036551,
        -0.33480358950859374,
        -1.8922510033176478,
        -0.7123473487507348,
        0.006392785530890186,
        -0.5462651659436689,
        0.3194546671645168,
        -0.2601027489430463,
        -0.8453782357603293
      ],
      [
        -2.386583107442942,
        -4.298857978790126,
        1.4845921319618471,
        0.6830033082854501,
        0.4281679916293216,
        -0.9439422778345177,
        2.719223551931013,
        -2.6567454624481526,
        0.35669715035687943,
        -0.2934118837064877
      ],
      [
        -0.7606623875638225,
        -0.28234515056842113,
        -0.16713989613659286,
        -0.07666931425499646,
        -0.15618484184880832,
        -0.7212300103336412,
        -0.7861834068089931,
        1.0970406375724968,
        0.5816330694618386,
        -0.6822410320689581
      ],
      [
        0.10284619692584598,
        -1.0755461571899174,
        -0.5961163782726299,
        -1.0250607745410885,
        -0.6933610073167332,
        0.32015913814051555,
        -0.29764861512923596,
        0.7353421793404284,
        -0.0023199883031250167,
        0.29231073718561834
      ],
      [
        -0.343312230713065,
        0.6779780807356752,
        -1.0646200814838196,
        -2.1495328925065746,
        -0.8893990603188512,
        0.23948945398802865,
        -0.0984727098976671,
        0.35541874599884304,
        0.6552258196825812,
        0.9499926491081372
      ],
      [
        -0.45819639937467765,
        -0.712384672836481,
        -0.2947460860424648,
        -1.0598769893115398,
        0.8791680118617007,
        0.20253304985894638,
        0.4069490729233445,
        0.7908533372250802,
        -0.9719205037769463,
        0.8027688136560297
      ],
      [
        -0.33428572232656284,
        -0.5890696574013107,
        -0.8537870761184232,
        -0.8935396390113076,
        0.22958445853957218,
        -0.3116187099512993,
        0.6389906754881872,
        -0.22902682381341094,
        -0.8657795974707562,
        0.6637710062813973
      ]
    ],
    [
      [
        0.5199427159877333,
        3.1866845483733677,
        -1.9026037345661793,
        1.2644414949004499,
        -3.2625605334226,
        0.592639199617356,
        0.9374823716887616,
        1.7777285473996363,
        0.761014407132235,
        0.6897505730720925
      ]
    ]
  ]
}