{"layers": [[3, "relu"], [5, "sigmoid"], [5, "sigmoid"], [2, "sigmoid"]], "weights": [[[6.550831790768799, 1.6046317765160585, 0.7360188542350443], [-0.32686422236493157, -6.8916644180370366, 3.4824864358074863], [-5.535869145427553, 2.9867782441107438, 1.0464549293374152], [0.6200775401525388, -0.48871961096263666, 0.24925675752240087], [-1.1124372006794316, 4.888101011966211, -0.5312423614173274]], [[-2.445367141060219, 0.047011583082229025, 3.216383111394706, -0.06830220633220149, 0.8946253782882251], [-0.20221111220209043, 1.5220785260611729, 0.3332277863237151, 0.6406735630568633, -0.16288449758312468], [3.7309949700245846, -3.1707104769835297, -0.537858206432859, 0.7463603198182783, 1.7527514247581328], [1.0011482992777965, 3.7274300488601995, -1.1866732366151258, 0.04895614994983916, -1.2897031629001512], [-2.363939285730803, 2.2311081097714105, 1.427507967513141, 1.0339340746907912, 0.8882676557519114]], [[4.7485437398135435, 0.3236616445458118, -4.121628420220676, -2.6735575687058026, 3.1543399996139754], [-1.118889558258909, 1.390184373578129, -4.91616138274163, 4.579565199288075, 1.7422670302566194]]], "biases": [[-2.898610047158351, 0.46509915724709744, -0.9662742781048469, -3.2165745493745477, -1.4521496484359917], [-0.545138085731895, -1.7744391838130227, -1.0979330109947516, -1.136291953425747, -1.3501625146536842], [0.25467051987219624, -0.05611176089485384]]}