{"layers": [[784, "relu"], [128, "sigmoid"], [10, "sigmoid"]], "weights": [[[0.24696015252622128, 0.28923843721185816, -0.10670109776548253, 0.29284231352433565, 0.4375589557425783, -0.7790560173065391, -0.5027873925329573, -0.45581297057729064, -0.12095452690542174, 0.09433852842654589, -0.5778184630061456, -0.3832284457316142, 0.00883147333477452, -0.9781346876250403, -0.5994771647961521, 0.15813032093139423, -0.4549002484848341, 0.196153405095417, 0.5984189664068862, 0.007161411418088237, -0.7058194055592333, 0.9529052553078499, 0.2594294232060581, -0.3612664812287636, 0.18488342826082205, 0.06162903545410203, 0.7081099892265799, -0.17249658307079296, -0.6739517850870209, 0.7907199582230009, -0.08867506437568329, -0.570472109519711, -0.34660407305423546, -0.34542260014521153, -0.31299297552338523, 0.32093201126505955, -0.9525082619479198, -0.2880771062878829, -0.09376713681347008, -0.7178991538603868, 0.026622082658897206, 0.1694310814931421, 0.5109706528675144, -0.730145181669316, -0.18664582015229478, -0.017756031972256656, 0.45335717587928903, -0.11983828141313844, 0.8744821535961816, 0.6342107652387163, -0.14087962325121994, -0.881693233912245, 0.5679657905166129, -0.658111444904762, -0.6188899241461696, -0.34887024552392853, -0.8548671154742602, 0.6845362049759043, 0.342199925728383, 0.29489795367373395, 0.6321159100263192, 0.09715116880551158, -0.37241781255435713, -0.5847036948675967, -0.33708589937057737, -0.5816337656705736, 0.20149448001827613, -0.8872751248704337, 0.4658073275392619, 0.8314634943919128, -0.3722458652680817, -0.9912675693708671, -0.9007726799644642, -0.14078972958171057, -0.9241098518878722, 0.6298146351642291, 0.1283602396080458, 0.0737350818152223, -0.9607846047475984, -0.3047822212763811, -0.9005132800093145, 0.37763965719909165, -0.1616088989353759, -0.30434790337451534, 0.2888980456921362, -0.4581469992950262, 0.5065191960341637, -0.44205932230662337, -0.30934201778771436, 0.5892037743502742, 0.6577550757040619, -0.03508121941886236, -0.7050695871474243, -0.45409186171500315, 0.9612769163260074, -0.14504477146496525, 0.24636401689693194, -0.3108960553298115, 0.9481340163779767, -0.30200858525405583, 0.5849311370689446, 0.11650876822691474, -0.296984139289827, 0.6773073026139551, -0.2556777059967476, 0.22108052640712622, -0.7549680951738432, -0.42317523806144514, -0.9369132601018432, 0.44641035420694525, 0.08202467608915215, 0.890175997064945, 0.5364510471419197, 0.21397133900236298, 0.413431419665222, -0.6640623388459577, 0.29600608551309116, -0.32495634636952836, 0.0881933250979231, -0.047777480820638395, -0.6432437623854158, -0.0004408993883971738, 0.5624933395723148, -0.24767530603057597, 0.7484667018221073, -0.4331175649018699, 0.7894428365493232, -0.057205859563968536, 0.4067137541614456, 0.0017629500040379615, 0.08210468307557235, 0.3526708116485356, 0.016816458669675054, -0.21845494899833834, -0.47307778928869243, 0.5868802438215166, -0.6840472295617654, -0.25979029302038426, 0.6185195361180766, 0.6583897138234314, 0.41213657819047445, 0.6311002079783425, -0.6291250717681227, 0.5002926588075115, 0.8590522837188755, -0.8087292457998941, -0.817961172466815, 0.3850174302643897, -0.23933329712053772, 0.417511024644718, 1.1138679238747002, 0.842261618151057, -0.605582514115889, 0.8637950796264827, -0.11427797511285277, -0.7094995218948542, 0.6771478943964124, 0.1720028004943392, 0.47964964224781725, 0.9275110286732908, 0.03762843707689812, -0.3938744834554634, 0.7086945193393035, 0.49007699027762436, -0.5786630986765372, 0.8335550513124614, -0.0063503928457960615, 0.5019137555775584, 0.048260726331531334, 0.6677983813940624, 0.36349317900549916, 0.19475281606822675, -0.7973045319061923, -0.8819656729096785, 0.3907020234373031, 0.6867803933473787, -0.9049628503186186, 0.4956584553837667, 0.012238957496650864, 0.561177466021577, 0.3439160255733629, -0.5048912212417649, -0.9465771460455273, 0.0390912447752136, 0.46997512715813966, -0.12597663048270774, -0.22044498841783916, 1.093223545098496, 0.6124348642179624, -0.6994766060718414, -0.1088051175303322, 0.8268746010629803, 0.5875630001034419, -0.7267980276216922, -0.4153714269828193, 0.8818342950018948, 0.04524542410719601, -0.540690777942806, 0.5524579099587711, 0.8391322775378229, -0.03532851798672576, -0.7439424831041825, -0.656999410605233, -0.1769976763437169, -0.6749623275204878, -0.6687455296636293, 0.9497352396479821, 0.008903789965588606, 1.0454889975852626, -0.7144984867079301, -1.016558364393774, 0.23318966626207535, -1.2741659092965965, -0.9603665256602455, -0.20342499684452067, 0.8690328040000762, 0.4259084736024096, -0.4889201610049363, 0.7190942030229412, -0.03418197828022497, 0.7987458816054608, -0.4807492730621173, 0.5977204262706205, 0.1480996291067717, 0.6224914892815321, 0.6056159041632689, -0.5213483205474736, 0.08695848435329678, -0.4279245492561067, -0.7092932856705535, -0.18939961998622842, 0.0484326382861546, -0.6904067378448971, 0.1772454979085753, 0.5238445508135529, -0.534417256446422, 0.7421299877393545, 0.7196003643547415, -0.2819325564824088, -0.2159540617828497, -0.7873872599642, 0.7795613870936448, 0.9496142081755936, 0.4154031760838936, 0.6717139073257836, -0.2751462382500874, -0.12761034524171103, -1.0534477100184965, -1.0138239371700877, 0.14828215326936026, -0.6155050227397045, 0.9100416532105239, 0.8625270803981728, 0.27276045346301464, 0.41417528237032863, 0.7069825263802183, 0.2743519987936025, 0.11421435535924303, 0.5265399045612463, 0.9915501306464045, -0.25066893042081967, -0.6242838775268391, 0.2718277547239488, 0.5700130602529665, 0.045638680392237035, -0.6325920187882351, -0.7862475700394285, 0.718970099595715, 0.14156225275475237, 0.4128161661846029, 1.4663672811882733, 0.15838408856181363, 0.4839643993431046, 0.5586820962807961, -0.86675638531466, -0.4174639292079617, 0.9816480431484296, -0.698920943453255, -0.6956059985444327, -0.6422978828300602, -0.12793556944359405, 0.9107729810237963, 0.8350564116210342, -0.24577903305747326, 0.4766027165469883, -0.8463501165071201, -0.5710215597517841, -0.49434048253753915, -0.28111963914615007, -0.9016973372195733, -0.0625771030615215, 0.9485473569465228, 0.1836050676337251, 0.14881529087495665, 0.2959909146611097, 0.48224582510646863, 0.4621817156147235, 1.1465019543460968, 0.1570511709617479, 0.7451296960978581, 0.1000059870413916, -0.3873342365403071, -0.9290260803477041, -0.5764583857308455, -0.9102265150640486, 0.19485730720049363, 0.0856603190067291, 0.027743479053513133, 0.5017119065966906, 0.39122484622936726, -0.6784164561725773, 0.6517694834876406, 0.8850558290109023, -0.738623979959756, -0.8205031225640507, 0.18235195195622753, -0.41819739583089727, 0.1529561963967735, 1.2016025700350066, -0.4810316489966777, 1.284562298694943, -0.2688635878471864, 0.05189030422886767, -1.4654938992654372, -0.15705336644162557, 0.3851940699341667, 0.8041972401006215, 0.054892366057313256, 0.693848945988073, 0.6783227265167169, 0.3995462984007888, 0.7916653704896749, 0.9410226181433852, 0.84154976393709, -0.7881291834792208, -0.17777563801913446, -0.9870868798731351, -0.46548941275823763, -0.37510137080338596, 0.10320989176590721, 0.22913604920530373, -0.5740414349050507, 1.0937085875119428, 0.5007408493396797, 0.286671199115761, 0.3917834918275691, 0.9016959402842957, 0.0894826782295226, 1.2054783954284118, -1.0554137200866445, -1.1188717240528407, 0.13560469223446114, -1.1542994136611806, 0.9179099735057752, 0.2846828389017742, 0.9771036877743701, -0.48028246979436684, 0.4758444961217867, -0.8100413395705801, -0.054882145009822095, -0.786252902071315, -0.490348477782091, -0.030523371026108907, -0.009737788507508949, 0.5980411352489252, -0.29329718971714475, 0.779005813711168, 0.21561959983679693, 0.5872521283108982, 0.8398788480661802, -0.6269209557358844, 0.04571717669988784, -0.5833623939240209, 0.2946227251209943, 0.4259785863329384, -0.5269515908890956, -0.12364837158326657, 0.27755781870100354, -1.2233447878765962, -0.7671450135055766, -0.19775172711476047, -0.4360178373306951, 0.25196684948908576, 0.7699646727407954, 0.9953110190924324, 0.6209207645061663, 0.20691827199103, 0.7807206794325098, -0.029293617903157137, -0.7380608295758462, 0.4851296650214035, -0.3085704028265186, -0.914736489653226, -0.40040190120520447, -0.9597062960979348, -0.877997710440283, -0.45651957362070095, 1.0638780595440835, 0.13403047262669116, 0.7184637569413215, 1.0449709222100736, -0.4022552208114455, -1.1526746802742158, 0.5436215144744522, -0.7808681065624237, 0.46319486735820864, 0.27363418885523305, -0.09920560727653906, 0.18829854251419198, 0.022802525717013345, -0.30006546309216986, 0.9832929498073566, 1.0112219604479662, -0.9572992188247578, -0.07667596706287322, 0.24233643533948845, -0.5127199212752916, 0.5011279554156073, 0.6377415383332771, 0.40041892192803985, -0.9837691326023057, 0.3349890801352726, 0.010682754441842263, -0.18259449569359998, 0.34824791834207536, 0.6087830315332031, 0.08322032959485061, -0.8397359292421248, 0.5797746182398827, -0.967106646604656, 0.2801433293149276, 0.2782671229556719, 0.2052308438968414, -1.0773061221414062, -0.2804913039077932, 0.4576915677150085, -0.6274925464988774, -0.079812955229587, -0.6092276888783175, 0.4339289092025521, -0.6535674370012682, -0.4630341896137432, 0.4120114961778105, 0.05814722181186946, 0.5932858943994049, -0.42399248903170295, 0.4573333630569431, -0.6866724078246832, -0.0661729180055377, 0.4751188588755478, -0.8691746422069943, 0.9930273451004472, -0.18547750870095625, -0.4391688728876691, -0.6757455214931836, 0.3200262443982427, -0.7119307657477497, 0.04997326679836265, -0.2061961855593197, -0.9964933480226623, -0.48502561741058897, -1.1201073366739762, 0.25858668294715, -0.2318390580765452, -0.7016875564419667, -0.8556148709190957, 0.07167720431296619, -0.9116519655989223, 0.1330697915117944, -0.5472686133037665, 0.28662565644770527, 1.0070891193373508, 0.3123842520086986, 1.0122099806262874, -0.15298073198649778, 0.4790262765128, 0.24360638927921152, 0.9529074653822616, -0.8991247780258584, -0.7265898558341546, -0.38219156368193563, -0.1739302061433619, -0.5260053178280407, -0.7283135797571155, -0.9430956878944549, -0.3874696613683711, -0.6177682646845862, -0.9972494238804046, -1.0174622377061173, -0.7435051719968675, 0.20637032476980174, -0.9904506648761615, 0.613735710212077, -0.27745035507610105, 0.7329644440169851, 0.6599973893972861, -0.2005059489425216, 0.6904212911262263, 0.30917558040505594, 1.0780729492186265, -0.33542248213450965, 1.084678033012942, 0.7737908942362965, -0.3058859196170687, 0.9314673605878248, 0.8185306213381753, -0.5323761187513608, -0.731794272175126, 0.793620444339569, 0.5621972121533976, -1.033385961830151, -0.5657784986299776, -0.6013284951616373, 0.10248057714621005, -0.24600423927565607, -0.11433383483216375, 0.06562428910903464, 0.44136052459309805, -0.2709879044804102, -0.2890968160997317, -0.6858527939957428, 0.2555264595855764, 0.31953993562215655, -0.3942574580541926, 0.040191605917449594, -0.30829752528663923, -0.7353681559367248, 0.7800584496781289, -0.5967699583712283, -0.11353721770808872, 0.4464528124355294, 0.19749034953531147, 0.99492225570354, 0.760061909390281, -0.3990202190294293, -0.7159596805397535, 0.18254337519063168, -0.13706023532403902, -0.19655112512644013, -0.8581955408267916, -0.10868317147563392, -0.09220710574760876, 0.30060189420851907, 0.7063277993135146, -0.1879356335047074, 0.5240027539156318, 0.4135689156688401, -0.6809243514727185, -0.672342376345658, 0.5935515065552841, 0.28166375528072224, -0.7239435219069473, 0.9312978721513161, -0.2418506618978822, 0.3610438960032441, -0.6300828869841054, 0.7422613974474838, 0.7600106795672295, -0.8881291926884464, -0.046009260089224326, 0.8284563454567391, -0.4962593122714861, -0.6892571939189797, -0.368971591300294, -0.5747495083090174, 0.3438412727531199, 0.1189042113152878, -0.2341173557498155, 0.47013782082412664, 0.2675669459170422, -0.3029568469263118, -0.24792332175693022, -0.37455754059864776, -0.7351305422671163, 0.16010894021081895, -0.3258152220761092, -0.10213062985799402, -0.8503647172626342, 0.035727752636456174, 0.46145178129466385, -0.8896071280049335, -0.8417998812515485, -0.020844327660073908, -0.38120737112755865, -0.7636313021530099, -0.8485419782121513, 0.3497878068315826, -0.7050737427742202, 0.9409561352763645, -0.11906884974957621, -0.41228966241280546, 0.7059435169815186, 1.0392048753077576, 0.9291793806908614, -0.060538837324245844, 0.4897486869937327, -0.021076478017187688, 0.4020265278160308, -0.47387318572279635, -0.5196234468327194, -0.20663385044064977, -0.6175645428886121, 0.1916348616447953, 0.047854082141421984, -0.4616108085972532, 0.16772300997830616, 0.22088814812605326, 0.9569267999119876, -0.8038477123005917, -0.32219090048812016, -0.45288131848312096, -0.7459004221923811, 0.4020380910228862, 0.6927210237391752, -0.7841221740392208, -0.2811671004781151, 0.7661596215378987, -0.6369182953299122, 0.6236496265965101, 0.6890741975915846, -0.8343237610273957, -1.0274836347554432, -0.5442710442312658, -0.01820378074775079, -0.648960427466823, -0.24234193262990594, -1.029939001430665, -0.40757012273779836, 0.5811031669796803, 0.10975053271941392, -0.3897918530595932, 0.6340292450588412, 0.8946461690665599, 0.15729354661424738, 0.04746813206422944, -0.7362059870283486, 0.9249119430201665, -0.7899293378790525, 0.3107264371165542, 0.519941779290712, 0.4487649147467544, -0.8054748959903535, -0.844901805017355, 0.254993285291476, 0.22442527966232517, -0.34625861743419983, 0.3776717679038663, 0.04010935989962003, -0.4356815820847728, 0.6925199911647155, -0.4432609729408065, -0.0032477672994827163, 0.6079191571545021, -0.21521158258155706, -0.4023556241593344, -0.1540726737184799, 0.5864383990973064, -0.8292611551143334, 0.12625419884862596, 0.08746222996599591, 0.6268214212139094, -0.49890388161431964, -0.38701297038465343, -0.8734433781115407, 0.7798356790767699, -0.17701504166963733, 0.5528117926236623, 0.796780912060407, -0.320306667722749, -0.966531222127662, 0.863691022197642, 0.5486308170394041, 0.862604190402793, 0.5085099719232979, -0.674286617901027, 0.642972063589636, -0.6677706229727688, -0.36143116747712645, 0.29538140266981416, -0.7391881835879004, 0.0670161417088657, 0.34033556202871384, 0.2810451859218852, -0.3781475793778427, -0.7848263731089311, -0.11033083439241019, -0.34497029719952066, -0.5050046489843253, -0.4213659009325194, -0.7660100301060103, 0.9529598144042967, -0.1483713535163262, -0.032045638466807906, 0.5518695508377158, 0.12606417934071237, 0.1982491920666109, 0.08300792431724299, 0.162517659779155, 0.17096257074858623, -0.05070122494175866, 0.5855195986376178, 0.4433036412349707, -0.4910381145404472, -0.04426453534264834, 0.6286718140767593, -0.8591873573992115, 0.9750290599218284, -0.8676647054992523, 0.9165307944525681, -0.09099207054312482, 0.7370970375007854, -0.38724957633961193, 0.8841295312532382, -0.13864554255259887, -0.8450571207899555, 0.751328061764956, 0.6315914335965597, -0.5564439201779703, -0.2868778001695463, 0.3952800561261215, 0.4214491602589715, -0.5150887023377716, -0.15663708150628974, -0.6522111493445754, 0.20831264253822043, 0.9376626500305913, -0.3629096701438448, 0.9315940034276773, 0.949489093658892, -0.06891166088309775, -0.7865029686321321, -0.4167417776242719, -0.833960702639058, 0.8363885751498509, 0.701770149003384, 0.09657389249373582, 0.33533456024721636, -0.5398140498934653, -0.8863008523224889, -0.49908170553877546, 0.10813314758172463, -0.8898445593541815, 0.16931515688129462, -0.5777372713622044, 0.4106373209939133, -0.14129426117142208, -0.9365919385505354, 0.23661879700747912, -0.2576114558666116, 0.1366737086842404, 0.39164951008092513, -0.47609717315585215, -0.8237336619775989, -0.029086436822919337, 0.10694902613738866, 0.4151011401487874, 0.5031010386737726, -0.6573595776839156, 0.05334790959003066, -0.9292521786074623, -0.3406082413614331, 0.3869965681431471, -0.7570083715079501, 0.954267960559557, -0.3853573040533184, 0.6605632749414245, -0.10101704985447825, -0.8803971741038008, 0.7536383142765659, -0.09730566031512451, -0.5306299784796868, 0.7501994697791776, 0.09383412486269661, -0.07651761380972076, -0.510097552800289, 0.33624564996750766, 0.22159520810298758, -0.9260220913988505, 0.8804189279291548, 0.057120395983685235, -0.8522709671707638, 0.5334145188528148, -0.9336889431191082, 0.6904877146862873], [0.668148862417518, 0.7496133431406016, 0.9519592431104824, 0.3018251218667738, 0.4157979558415772, 0.14653450084671293, -0.6730657454399576, -0.515140464913064, -0.048721071910940994, 0.42143309504220094, 0.3519465931783914, -0.5736680869635655, -0.7761846539823163, 0.9364779305542514, 0.01907695417419286, -0.03431270291478494, 0.7259401397623062, 0.997278190762817, -0.8894967122134727, -0.42829481937852454, -0.09774424123536507, -0.21855993362296333, 0.7473657349440681, 0.6961252062102685, -0.24203017605963462, 0.24057486346497048, -0.7799425247383043, -0.13571195337925057, 0.9986491818348389, -0.8438320828039974, -0.880926822138429, -0.4600370672491172, 0.9909461064874199, 0.4230766435976811, -0.028672641842705, 0.7546227924178807, 0.09360260018862585, 0.8872983868931618, 0.09185985496029907, -0.9177319747791941, -0.9031094351781445, 0.41118452936925254, 0.3071016224887989, -0.5653000093685637, -0.9419372595239065, 0.3024044279567309, -0.2973387572947238, -0.6048270916991731, 0.1767679862369102, 0.8958963133746625, 0.13428433224923864, 0.6520313004270422, -0.06112440128634633, 0.8987377741409937, 0.9336332988331089, -0.18357780900131537, 0.11567207668987756, -0.3992451739303744, 0.515039046806687, -0.9203987551690551, 0.6235309455247247, -0.032315899774278393, -0.7695472345584876, -0.16527274047071552, -0.6569020709741179, 0.562296910334002, 0.8862892951676683, -0.7653896175813522, 0.8792183378145728, 0.2782613875497737, -0.8841610936702673, -0.2872543138085092, -0.022272645149296867, -0.4869971112521391, 0.8939383642660748, -0.9093923712335606, 0.4071133459995516, -0.37072289288018545, -0.025857639941715003, 0.2719881983978023, 0.6658097522415832, 0.5356333441564274, 0.8847443074486072, 0.467202901358196, 0.08331572256123576, 0.43207944188146774, -0.9585797667311409, -0.5965570829752129, 0.053499025943533965, 0.6167520101562964, -0.5290575988152998, -0.2094215549014884, -0.9611402409242478, -0.5375682311553147, 0.9378930358784835, 0.0353733791382546, -0.11027978475400568, -0.7643144093191806, 0.6890556467824366, -0.09011620375760501, -0.8126582965218432, -0.9227103525361791, 0.05814671599067456, -0.4724280811477243, 0.36580070591760283, 0.7417288760249847, -0.25248383254389595, -0.8210883651110407, 0.2155625244539883, 0.29824203796824644, 0.528861210572323, -0.8041307493990284, -0.4159131610938527, -0.7023320581484798, -0.21257967601882033, -0.704038109276213, 0.2437456386253913, -0.47536989679445724, 0.8728012831597889, -0.9730117450335005, -0.2242676901010373, 0.7728341705506203, 0.9699339572983721, 0.7078358749795038, -1.047991608075533, -1.1305982066650584, 0.34780863635426373, -1.1839640736330195, 0.3296417461339057, 0.846969238255728, -0.7375258530331648, -0.40496412704577295, 0.047761447010546534, 0.7476278280991209, -0.6097416972973683, 0.35450705621750134, -0.2920883637198383, 0.46518976301750636, 0.5033607962899618, -0.9163343268794788, -0.3891183777388669, 0.6846102047191283, 0.14185910434519156, 0.6755034371222658, -0.25627805659717684, 0.5324025012840533, -0.44661819133096836, -0.9735424957718857, -0.22571670878830166, -0.9723696189644944, -1.0546117126834855, -0.4641267606098962, -0.13181287076441414, -0.878479213575548, 0.1821371845270755, 1.021288690391992, 0.2671358716019121, 0.2879133894408867, 0.1390192999981923, 0.17520269924396975, 0.060239285341195735, -0.7172468111385807, -0.31064227816536927, -0.5595634018846927, 0.026903224107605195, -0.12914761138007455, -0.11638268617374636, -0.318057761118242, -0.8201119307049991, 0.4938175304906216, -0.8702415227531197, 0.25746561664371104, -0.6369453401607239, 0.09259176123695713, 0.849608825882984, 0.2273819684805414, -0.3420473667480314, 0.7095842456715217, 0.07520406945557369, -0.35528339469059483, 0.06791186205019467, 0.30969609692087696, -0.8405558919600402, -0.644833485981212, -0.5071713270359463, 0.5803565989535188, 0.4332240857874361, -0.6744262799275543, -0.10517648441024718, -0.2826095090570658, -0.2504803318509664, 0.45950160903106324, 0.10688208763725136, 0.25214775923931143, 0.038500240897783894, -0.34966893166489266, 0.022053371852282178, 0.5243118432227472, -0.13768584103809264, 0.8821138643564138, -0.614847186060197, 0.24492062428847622, 0.7259848650064901, -0.8294776133084297, 0.6158797515303613, -1.209830619247514, -0.5905889772419796, 0.6974098500501781, 0.16862550208099708, 0.4502084751382103, -0.2076014662025697, -0.29091919510855513, -0.1969982262432333, 0.42232649656389004, -1.0130688457768964, -0.6738517559521202, -0.7927538354260247, -0.9471522406697648, 0.8690635146948248, 0.10824505967565588, -0.32351676324833184, -0.39631235724556685, -0.9791388096121456, -0.4131579999366485, 0.19775517810494536, 0.19480559816696563, -0.0008477532259306055, -0.012724756670283418, -0.37991688564624837, 0.04605540069257604, -0.3615964508110307, 0.8536007239882029, -0.7709108982981496, 0.3250794856806536, 0.3546142735419337, -0.7671588735271697, -0.5488180849463272, -0.36976229297368673, 0.42463853863960493, 0.19510518330820906, -0.01614945483308661, 0.8325339524140041, -0.5407512122284981, 0.84494466133625, -0.6458683830652615, -0.11007765539491011, -0.579567192862463, -0.356457200491002, -0.2535894514063922, -0.5379073173267335, 0.3245674932025335, 0.9207433235488243, 0.03765914977925325, 0.5089331618281182, -0.7589751685484265, 0.6660858847713863, -0.3841183058966253, 0.6380702035826755, -0.868204034653912, -0.29460655508138045, 0.38851818068007715, 0.822246750280434, 0.298391715038056, -0.007779355443931245, -0.39348022688659395, 0.5270839789123966, -0.3903239679543202, -0.825051728313448, 0.8963486445255616, 0.6129320513582833, -0.2082570768180313, -0.8090222800944139, -0.8376750601740794, -0.8033413396654878, 0.8960935238057716, 0.5603744440940512, -1.01263818201275, 0.5470003801810259, 0.25776038594786177, 0.9874300447139317, 0.38925791389287895, -0.7220323456491551, -0.7574237737723434, 0.41208588172926747, -0.4536981395194063, -0.5101045844468124, -0.5175345770264371, 0.7989679205631071, 0.3433317235518588, 0.39455789731524726, -0.9559891461317518, -0.4302447282912504, -0.09355965505604967, 0.10349416949622425, -0.7931030211669368, 0.8234497179434785, 1.2288902857203121, -0.25558211410324383, -0.24490511485207442, -0.6097540693904493, 0.05130103330326679, -0.5893260883230635, 0.6391804333689758, -0.3676209350304786, 0.9487038334090322, -0.16741864011471125, 0.3225297285239916, 0.3663433089108755, 0.8325745830630983, 0.6930327927868332, 0.47126138684847635, 0.756710531644873, -0.12062669019171857, 0.907266217236755, 1.042267967356, -0.5320240638694672, -0.9281408608627374, -0.1254803955708811, -1.0540053959696092, -1.1719008093470897, -0.6076110307481899, 0.04016402628695923, 0.0009414126615543703, 0.5670293813003052, 0.3592729229075171, 1.00622388344094, 0.15936019192688905, -1.4160275761843653, 0.4952804099588502, -0.24074871639010284, 0.39806281937405297, 0.03673676038575205, -0.08442347636645338, 0.03785837627125208, -0.7803664194606095, 0.5415482532606003, -0.8347581572989995, 0.4474301589180006, 0.0315606782928993, -0.4203984114291169, 0.5136409651796637, -0.3624640701533519, 0.19521960981449274, -0.29078632680603, 0.5212130026782915, 0.6456895510262186, 0.19465309803690065, -0.4109071938244418, 0.909902223672894, 0.15013722518919403, 1.1009296318808572, 0.29981021535624996, 0.45744191752581304, 0.12796271270935122, 0.10327891352911323, -1.1269813567486078, -0.22868820559877046, -0.9699875642243713, 0.8142852105554619, -0.4373837414465102, -0.8675906775808695, -0.1182519909916192, -0.056693382152323814, -0.5528655427807532, 0.1442583975020304, -0.19999076797003895, -0.9524104278694158, -0.411784070506024, 0.009718476046196875, -0.1348669740533023, -0.7119585974328498, -0.45606436277073203, -0.9931146484256105, -1.0010072049365484, -0.9597535817306817, 0.07092112968052348, 0.9282645413481605, 0.7184760938236538, -0.7525267681565027, -0.15106761459623574, -0.7184218141858554, 0.9461292385156205, 0.7754052208435126, -0.12843904307748202, -0.8984976019278516, -0.374331362086989, 0.9369052301644455, 0.03434973182815444, -0.18775493908229762, 0.8195759855033697, -0.9360536191371988, -0.8819582814057587, 0.031036950975648958, -0.490286544279531, -0.5491690564111549, -0.22441753276952583, -0.6131967902661617, 0.022629500321009282, -0.3053742567284979, -0.10597356002512205, 0.5998041268834311, -0.8101639459442864, -0.07472133946769839, -1.0580072446278206, 0.8179645153346646, -0.5968893615593489, 0.8746588171254993, 0.6441527490456461, -0.5239985766745932, 0.3159656812008095, -0.2072589270589326, 0.8599987484283385, 0.7547672872314352, 0.819964733319334, 0.6191687254233317, -0.9475440325436403, 0.6313270063900382, -0.9305556429403888, 0.05694793432391088, 0.1709405112507809, 0.8545059459060358, 0.7356567287470228, -0.26642320599067787, 0.6126478677915213, 0.13171889067310807, -0.4525232495238541, 0.47589898050086304, -0.03113298703884156, -0.6913385261704142, -0.7530753349895494, -0.026276739695684212, 0.5488136349966826, 0.325548564346198, 0.9385101201542172, -0.4032713956504437, -0.7606524933028878, -0.705491793648202, -0.6592396337364825, 0.17322229805916142, -0.531675351489867, -0.3404950299332845, -0.21751382966034455, -0.2025088672219081, 0.1344309570414052, 0.3463100734295902, -0.019499339498126718, 0.14235499485840702, -0.7020790879807559, -0.28826494543183667, -0.3288688467752284, 0.2328874700898464, -0.48591170080608886, 0.6103882951965809, -0.5739956534785022, 0.5213851962570997, 0.15694142603027558, -0.33261397104534063, -0.4744234349646627, -0.5262015465667362, 0.16722461372414457, -0.0571877880147375, 0.7484381057873043, 0.007288682984062403, -0.28343435495454616, 0.05360723171702345, 0.43493230244734976, -1.0690672636983798, -0.9089121227622852, 0.26562513343424843, -0.6029918733801847, 0.9696071558430427, 0.8853738830805384, -0.5192395516769076, 0.19789600230920532, 0.5282133909690542, -0.3100540971910194, -0.5279805035997773, -0.6765778863645369, -0.9564511763339882, -0.4545828350264594, -0.8296473571345389, -0.011110043889665492, -0.6997808912603349, -1.0150144664193086, -0.7323465423732429, 0.3877724000012186, 0.38741542041047305, -0.1744801462304681, 0.6994732768765067, -0.22861526253603862, -0.6513677812858232, 0.3566953765643944, -0.12175358997051058, -1.1880629214674274, -1.0165276417359654, -0.5376450395578086, -0.0011609455417229094, 0.21396343466010964, -0.4652768316556931, -0.9577073739178026, 0.5466077171652596, 0.24561169062423693, 0.06864744318770936, -0.40408747997359645, 0.09643417939321086, 0.8524396677418966, -0.4721769920755313, -0.3461939049133322, 0.01008396359533098, 0.3103253950386353, -0.9554329512400335, -0.9394120257113643, -1.2391155744917017, 0.12608155539812194, -0.10389858617320095, -0.3609999417428365, -0.5757318354284486, 0.27956387140894706, -0.41859786850694525, 0.41960894442936536, 0.517671036069085, -0.04873003358897826, 0.5637509302044467, -0.39153975464141305, -0.937365526863847, -0.2086520622989974, 0.5840303490695697, 0.09814196516071967, -0.29706807077121267, -0.04044453579786047, -0.5811865132179477, 0.0031943788325256056, 0.830431695484541, -0.09352958060739817, 0.8947674064523194, -0.24094883624605712, 0.8470062699615689, -0.6004682293777471, -0.3178719504200693, 0.69031827073407, 0.53323899727454, -1.222277029957625, -0.7243436574436867, -0.7057170950880101, -0.24346638434514428, 0.23483451227376512, -0.7226555390279065, 0.27824392565213546, -0.610464068171246, 0.08938175541696114, -1.0503535689511274, -1.0274853200839718, -0.438108558385884, 0.4666657134857952, 0.35703534629358413, -0.49454339902421296, -0.07742431752857318, -0.7533938290348975, 0.4100895111851963, -0.7981431782163613, -0.7477300632654738, -0.33282638116433966, 0.0446726086691061, -0.769146216722135, -0.35672758897037804, 0.1166400153883742, 0.4866174196899823, 0.6719454728118448, 0.49056952621923294, 0.7680489581478511, 0.13105820410830632, -0.25740782972407533, -0.5219275147507121, -0.1411670438725639, -0.028793831895279193, -0.07422748739108753, -0.05330719646227239, -0.19414998206318726, -0.3388630535913638, -0.5171253306192978, 0.42479011555969376, -0.5707094933852455, 0.6484153263280638, -0.451881424963513, 0.3552319560934202, 0.05881773557724293, 0.5200177223167541, -0.4464497831268739, -0.23871623184548163, 0.7949819600750367, -0.33059388719310273, 0.08621041378792217, -0.18890785301071356, -0.5852880060211152, 0.004040945950779835, -1.0381079531997865, -0.7701390075015201, -0.5748135469917264, -1.0444293301590721, 0.08863866919832003, 0.43801643739066193, -0.03771842510806295, 0.15424190337492444, -0.06761129443526119, 0.6993727882712895, 0.5834702316399651, -1.0548351374051956, -0.44470637278348435, 0.8496362402928618, -0.9630725825415266, 0.09152861339629605, -0.3572067868906418, -0.24476615548843858, 0.07965479537028372, 0.15398697364100478, -0.5094967421344858, -0.722570409956099, -0.24319839504621354, 0.30414890230789343, 0.6114202356334507, 0.07731595457974182, 0.8152317045561785, -0.5418555311923343, -0.31170892794381866, 0.7031286446396035, 0.6592745184888309, -0.8383440264193216, 0.06296522421321218, -0.7484138659708073, -0.3661256171927986, -0.4567711722247615, -0.7616417870238105, -0.6331986516534593, 0.5631255521961541, 0.811257833245725, 0.024326397657862275, 0.9971493824782464, 0.23562806689648266, -0.09142846303174834, 0.41576618781642927, 0.3512942939239743, -0.3832879838001072, -0.7659100399056065, 0.5657118953536451, 0.5194169637896906, 0.6950094024436351, -0.23523321616769424, 0.1479190512247647, -0.7695003424230533, 0.3027986307949377, 0.8105875826880555, 0.15852878146310112, -0.34483407340427513, -0.9316050056880729, 0.9560441124498485, -0.23142306164169146, -0.9373732534600273, -0.15681312362603683, 0.7170362948502674, 0.17317108371854198, -0.5653687049321154, -0.7740463483684019, 0.18452321014879122, 0.7023482450547801, 0.3897730446656419, -0.9337062263899153, -0.49300345054850414, 0.9078844560862821, 0.3284289926604064, 0.7834858042913502, 0.47774810164361137, -0.29190003573886325, 0.7014329606936225, -0.7732164358555256, 0.8485997620553314, -0.9138703807242697, 0.7332078040519135, 0.1689450459273361, -0.5583167116968472, 0.824470481636907, 0.8580246773431106, -0.19184079704330806, -1.029793083241641, -0.20509159492224502, -0.3406929699773217, -0.784167504979996, 0.7589682529668572, 1.0376063770944735, -0.6512974425494592, 0.9399741116955584, -0.3992089030553783, 0.5170652127854316, 0.7959520574501368, 0.13608916549451985, 0.7950575340507605, 0.2322978330485942, -0.7062133519091944, -0.7053067203158215, -0.12339591455745524, -0.7957393670879052, 0.6715562141755589, -0.7918248632540505, -0.3143444688099055, 0.08148241320059744, 0.6012176136448469, -0.407864327568441, 0.7559311894981893, 0.5139704172765761, 0.1247778235987322, 0.39850976442592784, -1.1443418972207517, -0.002707316333365459, -0.715246768361576, -0.9187623217941256, 0.08953965644845441, -0.5149476190763217, -0.37945213431039737, -0.019605858609428827, -0.5167480582749343, 0.32227677756230994, -0.9700638022763127, -0.7132638450113286, 0.32893538797881033, -0.19820152147224626, 0.6514999042443055, 0.2911240252809466, 0.5883070967861228, -0.7697686345387174, -0.669943544777506, 0.24184960676845124, -0.33676827534460463, -0.8239463208711191, -0.8765466608443531, 0.6295552959104853, -0.06868256127685232, 0.25149405254140056, -0.4116960604126202, 0.297384322892011, 0.3886305311481945, 0.3951619596887971, -0.6802372444610886, 0.750023631521571, 0.553715788889054, 1.005409704417737, 0.905612156130572, 0.3392552426129104, 0.4668923649702598, 0.2830655861471084, -0.3761245785781455, -0.29252455733294563, -0.6457225132327924, 0.358584301664885, -0.8873027126321313, -0.41350171504785505, 0.8869251328405308, 0.6023091697999081, -0.33620121020024585, -0.8892288233250278, 0.6225583820770897, 0.6318225101577264, -0.6483509272259644, -0.35832363741740014, -0.7532158752604797, -0.012023718956552925, 0.5191046453274014, -0.1124838427501554, -0.599935406681476, 0.5555883144272395, -0.6218122030050908, 0.2568111718579184, 0.14134898468186258, -0.8909036671024443, -0.04799726937034599, 0.1305617515078981, 0.9533901859834975, -0.5813054880857934, -0.6031990509458773, 0.8235355675809936, 0.42855283599949034, -0.045927693077364884, 0.30598432176296964, 0.8148595201807254, 0.8384506636265916, -0.23707189918415783], [0.7478321015311191, -0.7021537822767738, -0.07510972194363696, 0.12749456305981943, -0.07971064141902229, 0.8450299050035617, -0.24373133415394355, 0.9841411338813837, -0.037935381672337565, -0.5969432331601965, 0.002671218274092446, -0.9408763918214493, -0.5055104197150111, -0.20150147752096692, -0.7510373699997754, 0.1331556297873011, 0.5444683260362577, -0.6376402205732734, 0.13573417496391582, 0.027987581975192022, 0.47619314055422035, 0.1569626667467996, -0.08774387688148266, 0.27839748852083046, 0.8758506038258003, 0.04922738393397319, 0.33274592526088154, 0.5327506107143041, -0.3711424805620933, 0.22857529611993366, 0.2635043911666233, 0.8175693716288019, -0.2490047702987126, 0.12050669265931045, -0.6229768223020493, 0.6030942283556201, 0.19558275658109778, 0.11053964880693011, -0.14471521769567194, 0.5674661607239984, -0.5082989000777869, -0.9702866782589886, 0.66453172999711, -0.952450287774795, 0.40429243028477074, -0.014101891793372538, 0.44121302023467496, -0.7843155343429367, 0.45543308285029627, 0.4474639714387032, 0.019723817275814293, -0.24422940499329227, -0.48316517627803623, 0.9050910893025068, 0.5481695900468933, -0.862753907443482, 0.20372245442486103, -0.4487017003985634, -0.9375904176484593, -0.4561514075220976, 0.9664811196478513, 0.3099782401778269, 0.13616041530182615, -0.9845417206621682, -0.8463230268062643, 0.12519571039769162, 0.9863191756804123, -0.4846675675446088, -0.7992085374373049, 0.23708612409038152, -0.9224753471736744, -0.38566842785277106, -0.7994564396889124, 0.9190556122963184, 0.9369713930208614, -0.07933061087889758, 0.9557431259023452, 0.788531675698101, -0.8233045026683453, -0.9002298647010892, 0.07241760424426183, 0.528406496354662, 0.32285848927684757, 0.6374669221993354, 0.01714812873008098, -0.005460657344211972, -0.18188548230920798, 0.9882805011009679, 0.4933591061409747, -0.6839982733101554, 0.025323126844427443, -0.526133658250352, -0.8631670404417434, 0.8127527508846529, -0.4917236334178535, 0.1071183967747732, -0.46674382478663706, 0.09217153731726484, -0.6732745699141738, 0.5146939565438329, 0.4788385015423994, -0.1439113936463551, -0.3220960004035892, -0.14589398904443196, -0.6765898769666634, 0.3032651928744464, 0.39643280420465726, 0.758648306822394, 0.21381737667823497, 0.6222593781313722, -0.11270098637990662, -0.9476151764431793, 0.6545565826489179, -0.8515800112524401, -0.023342178925473522, -0.9607783347595608, -0.9321213452256509, 0.5421133015753706, -0.0036724183527828465, 0.12533655944173416, -0.6020332939877456, -0.7847889897443185, 0.556537992611339, -0.8118780026147143, -0.9718194955066639, 0.5766760880464595, -0.0867008739028044, 0.7592112200262545, -0.4048862310776177, -0.22968878204829032, -0.12617244703603664, -0.2244800601191447, 0.5070296402024389, 0.4056548521822629, -0.8840037060261634, 0.6023714225977446, 0.9211569433304729, 0.4726874733819111, -0.7332521682764888, -0.32944692983802315, -0.7631145405933255, 0.9562309388576216, -0.9626877729195032, -0.6909712592820499, -0.7559636023052693, 0.09384248905496183, 0.694585261686288, -0.7337801647081695, 1.1820050715938153, 1.2553481215998639, 1.0197921371141616, -0.5363905632307295, -0.7337198545388887, 0.6748684233784168, -0.18709158495014774, 0.2655115833261351, 0.35581403315167354, 0.18076451215021336, 0.5885635740374133, 0.44587905575458464, 1.0839083834761092, -0.8656322264879568, -0.15923062096207474, -0.023808662189515502, -0.41686999533777414, 0.8480144121837929, 0.33238090609646237, -0.9579411328764735, 0.7788308463244924, -0.0956173609374038, -0.39192333046120786, -1.0144003786964668, 0.1259668944674979, 0.5686526709224258, 0.7288040651715779, -0.2808705603230337, -0.9882285279146978, 1.0627930179639014, 0.08545163968917402, 1.0656003844929476, 0.8178381140824764, 0.19865627003456818, -0.2646586182245531, 0.10765976580665083, 1.1203669728032124, 0.7103714666996421, -0.5332696668716335, 1.0533304236124312, 0.7904426353861954, -0.210818991552314, -0.3473180332380409, -0.4345605222862741, 0.30053938917384265, -0.14090213176705718, -0.1412512411009647, 0.4873498486212859, 0.41882733307192566, -0.42513682581061046, -0.2730349147870017, 0.35865881806505445, 0.8564839225797118, 0.08888156067157238, -0.11056588740772201, 0.4141132568840765, 0.8459870286810305, -0.63618616279976, 0.597315746681251, 1.1129770018348975, -0.23248051862837366, -0.42226180935655305, 0.7575836670488616, -0.8054592100516008, 0.26136679145279385, -0.5278119543779987, 0.44219499762520614, 0.25215330895444726, -0.9670202607662637, -0.5221895105430465, -0.727128036544697, -0.9414893756936554, -0.11922211062297057, -0.007043106537649887, -0.5175815650977597, -0.7466925664779027, 0.7443701102524638, -0.7836648385287951, -0.008894405996716771, 0.49877351219134936, -0.9176760716947718, 0.8194701544609273, 0.8322133724386283, -0.7548535757669624, 0.6055501035070907, 0.30259266962270914, 0.6184710981650472, -0.8422851722917386, 0.6635394747356455, 0.8468617344990839, 0.8493423337648511, 0.2972381203350118, -0.3848688138124929, 0.12255799478657244, -0.9469915075362034, -0.6723339680813966, -1.0550959280045777, 0.3513417857813448, 0.3264627799447909, 0.582337644698866, -0.7437653539240805, 0.49766099932214414, -0.2313921782268191, -0.7527125799326387, -0.21806122281049897, -0.30552685201259866, 0.00024593947334175385, -0.39567586001308336, -0.9810718958815419, 0.5416350366534022, 0.5460790444049265, -1.057558378467974, -0.0162901873415577, 0.15950455095927016, 0.4181833394569728, 0.5262521229515746, 0.19704767303420134, 0.6533716435722231, 0.9188257053441587, 0.9210093840812826, 0.5954824514314204, -0.2235236036331836, 0.10731337323842263, -0.12877892247661935, 0.3524345720305148, 0.585020802625525, -0.3710036127682446, -0.5003873646385549, 0.5509787227966974, -0.1262116998632118, 0.05040472206231783, 0.14922809387173322, 0.3228989185876536, 0.6229261465126619, -0.3367404004467425, 0.4979446391937915, -0.055641160762998944, -0.2128164651174513, -0.8839881328451777, 0.4900647624895318, 0.8455337343204586, -0.04338033997609032, 0.024775662635070247, 0.7864113603907434, -0.49468815269158495, -0.5738918158869489, -0.4377806527520465, 0.2849137550847191, 0.6796387478165264, -0.24097513215624142, 0.4224598240069697, -0.22299255824385697, -0.994390368489933, -0.6444556698768823, -0.07450930659312281, 0.505037646957691, -0.7153562623547282, -0.22557151331340133, 0.36223065266415577, 0.2842566603513833, -0.25966393572972807, 0.7397905886829321, 0.08981033141192743, 0.6351201617287624, -0.11269531342535578, 0.23744939606908144, 0.06080285189374176, 0.0868960472476904, -0.4746558645397879, -0.4355158557379068, -0.8853271497127352, -0.6680359164041498, 0.1957813138890049, -0.47357435650399543, 0.11459980626559443, -0.6167102065081592, -0.23345451904841474, 0.29524832464952533, -1.1643746053741146, -0.2508271293599863, 0.15444216622878704, -0.6858642187667233, -0.33999414460631416, -0.07262172963413856, 0.49038491585669425, 0.2512637989353809, -0.4091348707761121, 0.6053067986084375, 0.681357310424413, -0.7839971991420857, 0.2855597654553357, 1.0499674281455011, 0.7562311191717299, 0.21741252179212153, 0.03326921990630634, 0.5068007936832987, -0.63918524529864, 0.12121994016773992, -1.5034160425535004, -0.1451843963897379, -0.6208092225882096, -0.21492114521301078, -0.07176626691896591, -0.4087817066447628, -0.9628503025343061, -0.06720970278787829, -0.4050298736395995, 0.03565502129166995, -1.3912661403843667, 0.551939262205061, 0.44794400973454473, -0.25460533754046644, -0.5109954687865889, -0.09317898979015082, 0.30677541261571495, -0.3225860512122969, 0.3175562147799389, -0.6783434012160994, -0.10128601417708628, -0.3419903624105799, 0.6663982370723801, -0.2747349630197114, -0.3209491032060465, -1.1931280439256071, -0.9302478113356948, -0.5526157967756987, -0.17760782221775667, -1.6947647790939395, -0.7471276898790576, -0.2717504381835897, -1.4244661054887862, -0.9226294505211459, 0.10676511581376696, -0.9157936051166031, -0.727817955763058, 0.24440836796740112, -1.1101456669679364, 0.47149898072809376, 0.9699994072352045, 0.36085759614817536, 0.22075230303005874, -0.15762480214347518, -0.5423107417878602, -0.4482816372979741, 0.10138023524455364, 0.16465988536031273, -0.7825218344189591, -0.037002572367108154, -0.12125703595197361, -0.48024057621736305, -1.154152234289504, -0.8593246271267783, -1.4444825259658327, -1.2561377423101485, -1.452884672929961, -0.3274291685806129, -1.1414335645587899, 0.030050241121607466, 0.23935676359412114, 0.49135112353407995, 0.1126666227975408, 0.5358631332072272, 0.5285156988604778, 0.4475282606036639, 0.43083675148181655, 0.10800580935703485, -0.7266043397600397, -0.3502818749716986, 0.5280095748650001, -0.24949225011822243, 0.4983892855963907, 0.14787104239541105, -0.2813392423887231, 0.8045211212928576, -0.3853254022447225, 0.345628645789677, 0.1399463963789803, -1.1005299684896337, 0.08410384720239562, -0.8894373946209224, 0.39250572232472725, -0.973960324362339, 0.5146857234804321, 0.3795766104189367, 0.942701617177546, -0.6248124017538758, -0.11253574285088276, 1.316636582593814, 0.9983752087381603, -0.06608156054027546, 0.7623692342553079, -0.7828540732368634, 0.7190716819744248, 0.12166936939759951, -0.6473189332562822, 0.12272852401046423, 0.7746336826640098, 0.04583855469685841, -0.8265447862122816, -0.8841217612982388, -0.08740320228152232, 0.8211235948377429, -0.7537324736043436, 0.8957583143074508, -0.5217925286995811, 0.7810376407370908, -0.8621104075090293, 0.23832304597884904, 0.97768251856228, 0.42926423686119447, -0.999482694070359, 0.30319883382197255, 0.1444799481177372, -0.7524188887614157, 1.0113501610206894, -0.03493619704593107, -0.5614051102138192, -0.5524467679901756, 0.10756737079191811, -0.6256473293003691, 0.5877556940307321, -0.4059899703964227, 0.7178154544242394, 0.5643327459396653, -0.6989007949171029, 0.83924406108815, 0.4497605939865815, -0.01158784331728366, -0.7680390752124222, 0.7554975862572428, -0.3564720224959216, -0.400522351253874, -0.3998026079775347, -0.15622014853540742, 0.2975748378436771, -0.449104025610779, -0.06519533735161714, -0.4915177944556566, -0.8299394256006559, -0.4826733806576861, 1.0440645178403052, 0.7275417877365848, 0.9379554775148753, 0.8325118544143205, 0.7898198170274224, 0.5307140167482808, -0.43881502253098864, -0.7836505674973999, 0.8956359424933442, -1.00991353872589, -0.5288098782706562, 0.11566184827897143, -0.03804632439976393, 0.22113055195977854, 0.42091747127560186, -0.11750960038307028, 0.8764215979933272, 0.7781717071758866, -0.5632638440531245, -0.19506877096625497, -0.7192288983914098, -0.16399770399000801, -0.6651037495288202, 0.14895258687105614, 0.9073376246211975, -1.1038952521747065, -0.17005076286646714, 0.8689831331718613, 1.3815722857543642, 0.5555677412776707, 0.1270819171462812, 1.1078752255879072, -0.2480014672801573, 0.30506775141222087, 0.11779377489602454, 0.21244548141957725, -0.2895657033512191, 0.14734493354030734, 0.8598190762697782, -0.3744058654213062, -0.019057950950290024, 0.2809703379729736, 0.40180972302974316, -0.8760254567545889, 0.9345417653456314, -0.814458315062392, 0.07970001840300207, 0.024552987472788092, -0.20706789739442016, -0.3495102754308059, -0.4821264398476591, -0.79154230881757, 0.7313524522480327, -0.31464794030229976, 0.2818368819709746, -0.182676111240635, 1.4089132227715353, 0.5975277362594297, -0.16404459576450503, -0.5866105251054834, -0.3990829750647025, 0.03597873782666553, -0.7441571727423079, -0.41225309727563664, 0.8371004562796431, 0.12568809105088072, -0.5340134116833666, -0.7349927771219771, 0.07249645041226785, 0.13459125185531007, 0.0778221294135388, -0.15835940302705082, -0.8231497567303334, 0.14289822919186215, -0.1519679508324389, 0.7637416999834575, 0.4719652759819306, 0.17496140443919303, 0.0690989231389099, 0.5279231449230251, -0.3406543958909596, -0.6515902957972896, 0.7869414837526175, -0.24071560373770032, 0.3806426106831027, -0.0714605140016505, 1.3013118607490113, -0.8658883244413015, 0.5270454278944872, 0.6631810462807249, -0.6524511248916631, -0.6573347707682787, 0.31712012197841793, -0.5384952476055921, -0.09546004182702385, -0.07894992678924768, 0.6960801477825567, -0.6451178794358513, -0.7944803320412477, 0.22606519971120398, -0.7316990645013022, -0.31817562212290285, 0.5700037343760264, 0.8951524940553961, 0.8141686613712406, -0.4796383634825243, 0.47129287460757735, 0.25105974881940657, 0.6191206423068811, -1.2053588654241956, -0.22347577868189383, 0.0802197769466244, 0.913644620382184, -0.43514381087465787, -0.1818135872097014, -0.562945657376256, 0.42199546600473176, 0.4784400325763126, 0.8425641410314036, -0.841139323472762, -0.09013384671038847, -0.4103269546608042, 0.7565865419512328, 0.9861742313616997, -0.478340374613453, -0.35562215435736866, 0.6726927361617724, -0.46173085308374473, 0.5724254903814467, 0.7121249552417259, 0.8041219606083967, -0.7883056118178717, -0.17528672689448255, 0.9598511516182066, -0.5026871032055025, -0.37744714692972325, -0.4564547749807511, 0.37157883016332877, 0.4141942701445467, -0.17918497068707337, -0.8238028311796524, 0.9963918233718808, 0.5887121241024158, -0.5121305919405584, -1.0583307597084428, -0.23715989427703182, -0.030222004690687792, 0.12597588664461853, 0.648298388237428, 0.6799711061975904, 0.6075280686698753, 0.533851150104458, -0.7944370074431908, 0.554889116442294, -0.0637361520213781, -0.4533617563494132, 0.8924934894931227, -0.6673279148400899, -0.6909152109635833, 0.7019562220177168, 0.6728116947634026, -0.07057523088213778, 0.13179277252118246, -0.8269456776651405, -0.17244550937396907, 0.35537778543251275, -1.1498167318814336, -0.8842693371067808, 0.8226095011584242, -1.0547538888891648, -1.0283291934002252, 0.4691493204234227, -1.0726053615335034, -0.5658169117069948, -0.6359454210753502, -0.02916636158833497, -0.5454204459960879, -0.7819451978416039, 0.58772486471107, -0.7586579271724839, -0.42416907208735766, 0.9713309608847456, 0.9418690664867069, -0.1768296194608472, 0.22967866781133162, 0.778045270689625, 0.130717645524975, -0.3756727817035196, -0.9467481630007648, 0.1587261378031235, -0.4896823138578874, 0.3469416033080439, -0.34230731753914684, -0.8448417935882047, 0.19374932024920016, -0.48586595866138516, -0.005680265138625509, -0.6788207030247388, -1.083552125199804, 0.29954852130522314, -0.7358743921623352, 0.618755567872184, -0.21990481448018212, -0.32470468863714014, -0.4490364082100141, -0.3167548742528828, -0.279593712339282, -0.9957917710333771, -0.013373662140434815, -0.7148016645587505, 0.8124592032703613, -0.2866259857579736, -0.32649573694424094, 0.4279774237287506, 0.5090583176643846, -0.5682651458926331, -0.9052667246607358, -0.04885551276300587, -0.20870915934471132, 0.3628353846624606, 0.36501349798583754, -0.59371972382949, -0.44261725438120697, 0.37751840382048235, -0.12717671793036292, -0.32746468409981117, -0.9431725025188363, -0.22812105618011116, 0.14137054807914337, 0.781014998930296, -0.10745932101102076, -0.8619414904268546, -1.0376590306505717, -0.24604225156054765, -0.01109638234512755, -0.5455554146900574, -0.4802513013239685, 0.6953724995860301, -0.6677787204737637, 0.22354264843865668, -0.9402775160704733, -0.6503816024433209, -0.6474172248589538, -0.6302156386719631, -0.07968183015363269, 0.9484164261678387, -0.919057987809669, -0.2098269867198804, 0.41561668876139124, -0.6243708541613683, -0.26278045429309504, -0.10077207509796578, 0.29444900302226146, -0.622110121544421, -0.5474295420306434, 0.7127754051202825, -0.08991751613709158, 1.0275508372389244, -0.889880413018009, -0.6984766507203556, -0.22113886502878835, -0.7467578682517041, -0.5948565253270648, 0.1112505658675028, -0.7390597024516864, 0.05479323108883083, -0.5933103023387352, -0.769815181924318, 0.5106309035153269, 0.600653428408481, 0.794149712150193, 0.8134740304054444, -0.7055594478542073, 0.45471516584000415, -0.7165220977398338, 0.353533108097195, 0.6748771009054565, -0.03158898383534489, 0.04264845700536589, -0.036795040197561205, -0.338057086108968, 0.4525334931808055, -0.4382053820288482, 0.8055475163682825, 0.4418322684981535, -0.9501901207313422, 0.9291147118095956, 0.023628701750029235, -0.6096304380878432, 0.48244777535156524, 0.8235935885756034, 0.12634859423284306, 0.7881611415343703, -0.9868759033983574, 0.7899612947320636, -0.9090967432539347], [-0.7115124162548931, 0.10204483429560174, -0.14866382983062176, 0.6892266836756227, -0.8864345582339728, -0.17294423241207268, 0.6033306328209402, 0.8940302315574427, -0.2678148285903619, -0.9807266456228168, -0.5785572681681384, -0.5380369899630086, -0.30931668756997444, -0.5180655381502743, 0.19280756858336479, -0.9322252117780707, 0.08452331701719817, -0.989208951063804, -0.30926800772730223, 0.5819698448369726, -0.2402627455762969, 0.6984496452190196, -0.010072970425138328, 0.5137610084072435, 0.7329399568341182, -0.7616981547802206, 0.8938285283336111, 0.9169081481776584, 0.7276355463575046, -0.44750283435860716, 0.2441397073715026, 0.021120050926218603, 0.6592113499792833, 0.8949781382355361, -0.452197346126482, -0.8722614093680088, 0.7897739719481792, 0.9782524405684103, -0.792999878853364, 0.6303321395316329, 0.3745859506923318, 0.942623725111319, 0.9042594206595558, 0.660380580842962, -0.6930806784902338, 0.5898885671510425, 0.32434497069185064, -0.3639071483086357, 0.6825111852963672, 0.774992958348113, 0.3056788063411693, 0.5022754729003913, -0.5095849296224753, -0.6320326365482141, 0.4925214793381749, -0.07106068171827928, -0.37672647469130194, -0.21935679644201778, 0.6235968611110139, -0.16828903514215376, -0.31230811158398253, -0.32675743249228256, 0.5998855716610543, -0.46494116115181894, -0.6102290473257118, 0.9604200359186248, -0.5037908418449472, -0.7655683645405114, 0.1700408768871187, -0.04005632306289634, 0.5858454448715644, 0.9072123954005638, -0.028337269278162196, -0.5969448430348592, 0.6317591836320918, -0.08814148612491846, 0.12828163893690778, -0.20519507052581815, -0.7444605971679902, 0.03902761007898221, 0.31891512110654496, 0.24743598328186533, -0.9969034549980289, -0.10534631070473544, -0.7579731323459313, 0.6546643285330163, 0.8846499183457335, -0.06013842873077313, -0.9254687261398945, -0.1711071186176987, -0.8577414778196875, -0.35788037023865693, 0.6048610561190455, -0.8001359296534284, -0.03963494717862644, -0.41528913643983645, -0.007132608701888548, 0.13448736336477862, -0.5491028276095559, 0.4302947080069521, -0.184765715444782, -0.7967124041938952, 0.38541970292857597, 0.2577663242295369, 0.6040988756661277, 0.9362536561343694, -0.25868856018471675, 0.7657479551199877, -0.9065194477126226, 0.541817221266296, -0.4212876593426423, 0.6017682388473871, 0.34473156315450537, -0.09576422218046288, -0.4816213775219891, -0.7505243668386192, 0.48094107017867416, -0.026867236977044837, 0.831704539218416, -0.5794654774086004, 0.15415627910327284, 0.45221863325576506, -0.7197829145715614, -0.5792480457227384, 0.3857960733494219, -0.7538937634902747, 0.13584793227459144, -0.48994598038519654, -0.2594775758656186, -0.7706607960652121, 0.34081644769478625, -0.04064556652039172, 0.8604641500514446, 0.9675816982810044, -0.12874121405917127, 0.5805451221963934, 0.6792909287768301, -0.718172822879593, -0.6592933348972595, 0.4450753479741132, -0.19205634473302813, -0.17268861930449292, -0.8927871346417116, 0.7328158932153318, -0.11833460338293168, 0.04984026294724358, 0.8420813568860136, 0.3472170678752719, -0.7482949634450972, 0.2683369704536949, -0.6158606255299316, 0.3285776801988342, -0.17848110250177324, 0.18705811542233886, 0.6452343657388973, 0.1695717001906178, -0.9403983008937263, 0.693052397152235, -0.26883617337292914, 0.2781588261860605, -0.10121865047477718, 0.6171252029716772, -0.9172261008843704, -0.30183808630690684, 0.8513686420672458, 0.01551605752565912, 0.5030794010132077, -0.18856199644392269, 0.7216450679099113, 0.7109601400203576, 0.6092640573757779, -0.27853295003393574, 0.8358919632761159, 0.107942897328661, -0.6876700713424617, -0.6400928513181724, -0.5074455130344555, 0.7145071242015097, -0.1388777266998709, 0.49396970795569217, 0.18997664474534084, -0.7840231446893001, 0.01631673480392032, 0.41838645311137085, -1.0073676439449504, -0.6787664871653828, 0.009057794149407288, -0.5043833868092857, -0.1297451157564851, 0.6061136423533351, 0.3823690046833425, 1.0983316878388611, 0.8239315635435048, -0.41915222587813206, -0.1806092511507582, -0.18533939431841592, 0.5550187449274366, -0.004051589664674881, 0.5887648763505109, 0.6832757727727347, -0.26773471780956, -0.8377950684406127, 0.786058896620941, -0.6002490422856236, 0.24558223574259722, -0.7982401892656469, -0.6989410940437927, -0.3168774337555049, -0.9244636527243829, -0.1853958846819259, -1.3687451591534021, -0.6286243538757045, -0.802091491845619, 0.6619602025783706, -0.2402193690316652, -0.5019661097947782, 0.20352228660238975, -0.8113289762948843, 0.5867252720357877, 0.5281418821324456, -0.6038637100770267, 0.4249520145810669, 0.11630180124826633, -0.6851729796310675, -0.9402514895605765, -0.6403634423323071, 0.718693168183897, -0.4168003313156316, 0.7711192029253456, 0.1895136652139984, -0.23936672471951226, -0.43654225874319924, 0.5970558044824376, 0.4496054215721359, 0.4276525674071589, -0.52792929977622, -0.7419767576990832, -1.004330205982866, -1.5890545140487027, -1.3783216503978444, -1.4642712363476078, 0.11367231128929303, 0.14000159764706394, 0.8046024187244739, 0.5278132336611251, -0.44762088909577763, 0.6387471870318365, 0.693531861393025, -0.6571319932515709, -0.5431125412278028, -0.6073238806173108, -0.9468388596163207, -0.895871608518406, 0.18172473010504084, -0.7976362389797694, 0.8842625026881693, 0.17270506532196198, -0.051990720959905715, -0.36881385474202616, 1.1028804151168259, 0.5020162765374936, -0.24354315793724954, 1.119746092413437, -0.11161291019119318, 1.1385013315990686, -0.7263793215946497, -0.8934779966050129, -0.5099460490845635, -0.19550239230277883, -0.7323818813476254, 0.03946382701734315, -0.6194097334335305, -0.3472621265231484, -0.9204274044661336, 0.42961035068966363, 0.31199955347559216, -0.298410973095358, -0.3010314156067272, -0.11313923620128279, -0.46526644416857743, -0.4792807966545481, -0.3907882972589974, -0.32005580477045503, 0.6366865752539427, -0.7390868745909416, 0.4838889093280852, 0.8057297508475111, 0.5164934772495188, -0.4225392902806976, 0.9230596027762631, -0.3743879728617272, 0.21023915505756258, 0.8923473179986593, -0.07523682765835445, 0.3059254526733112, -0.687441072009143, -0.11851136977297257, 0.16128958850758135, 0.5596536272424852, -0.7539788665588466, -0.7249710793854652, 0.4511669113901995, 0.5432773286934667, 0.04750667553804658, 0.2583838668520061, 0.2579982300368157, 0.23642843114973455, 0.7750110152660096, -6.25638481210591e-05, 0.671370704388688, 0.47445346580608566, -0.7254146139860489, 0.9719917735065334, -0.9837648127174956, -0.18034481686591283, 0.8209420125046918, -0.026750271512138435, 0.6042374925169401, -0.3941457050120664, 1.0950852098086385, 0.7640988996065857, -0.15693296715478716, 0.18146549341970625, -0.03932603998337042, -0.485008518418969, 0.9819726904721363, 1.3149157097687676, 0.3822942059589908, -0.019133245141701134, 0.6119415474229918, -0.48758547378837624, -0.2823816766823223, 0.8342724072282953, -0.5759564926950672, 0.6584716766315853, -0.09017703122333107, -0.190919264429942, 0.7774668280205568, 0.8074963659129324, -0.1671690428369, 0.6233161299276425, 0.33056263969005767, -0.5039097336447971, 0.09943854475672517, -0.18082052208330474, 0.2195788545027103, 0.6117526409738425, 0.12481773661754617, -0.35697649016663496, 0.324529206200531, -0.39103322542428065, -0.6865919433486931, 1.139677572857702, 0.6311320576069572, -0.030843844802241255, -0.6133541731614345, 0.7874694882797947, 0.5736818792564884, 0.5063556275324531, 0.20027432107461798, 0.8452970378482163, 0.8009167295244244, -0.8605301846300507, -0.34936450866806745, -0.5722206669803103, -0.09696919789095379, 0.682964032146793, 0.2826544232974003, -0.9365346884775205, -0.14387644111440917, 0.690415050862321, -1.0758464250507693, 0.6008379142985922, -0.5803427644464156, -1.000291842511979, -0.4221649279966102, 0.2916178923594641, 0.6311545841096334, 0.0750568963404149, -1.0763804599881002, 0.7669520028753836, 0.22151738674914695, -0.25290573319479903, -0.1811790665914656, 0.099354291514828, -0.9731056001978452, 0.6745016703352563, -0.025607702099396543, 0.37198784493076503, 0.7280730444418979, -0.8952720372279664, 0.9342250379004251, 0.13623199919952156, -0.680152956146314, -0.39520356895928554, 0.550230325338114, -0.49114881849791403, 0.8070066123415541, -0.17067397013694116, 0.2577888630344509, 0.43701497604486794, -0.06764470450525925, -0.3837225357471611, -0.3184621342120042, 0.6155901887173871, 0.3305971589228883, 0.4732192372095679, -0.7576017070426216, -0.26278090675295673, 0.9782741228753352, -0.4051573768346193, -0.4829607143333413, 0.17695925519034025, 0.11498086924121266, -0.941515426768458, 0.6413163241342844, -0.8357597741097892, -0.5953947192469446, 0.9457832046620972, -0.1294261878950218, -0.4284161282650081, -0.6274510570147918, 0.8812795830005595, -0.584615103007664, 0.7599579723302105, -0.7255657889866024, -0.7554147487918419, -0.7100417839152101, 0.3094803878011993, -1.1868632761418179, 0.44877959277270996, 0.139710955126271, 0.579984358144304, 0.6951347853871023, -0.2307706029730975, 0.11827274553981208, -0.7322855221251253, -0.07060628193745007, 1.0146180352104157, -0.01767967255412172, 0.14829418367987332, -0.2708277665630905, 0.47532181314472693, -0.32488560416252504, -0.607600516064218, -0.7698118579575471, -0.20144188517964684, -0.19477045533697626, 0.7668765355414506, 0.639457449394141, 0.025486354668641138, -0.5935544017591695, -0.3724588279503001, 0.10824890734582193, 0.6884420472630729, -0.9517413938986513, -0.23503017066377274, -0.48253040719027057, 0.4606382345753972, 1.2765362718560038, -0.05388504376548184, 0.6941312075818493, 0.7714211042922393, -0.4059035042069781, 1.3290694601495199, -0.7187133939097274, 0.640636447585842, 0.7942549574335781, 0.6300826869452153, -0.09306844888493852, -1.1274821016324124, 0.8734457632227327, -0.2102803362001703, 0.16268533915047154, -0.7044636056861462, -0.3894859957241764, 0.037382202316580626, 0.9438791238161264, -0.13865628657001144, 0.20343695179574, 0.5839185286865817, 0.30530549614223185, -0.4327922920032874, 0.05980817896079979, 0.5094601096386128, 0.8043535925899931, 1.0573954691639338, 0.24756792349687728, 0.095342816930528, 0.6469231185911555, -0.9764012243237435, -0.4747309405659022, 0.7382823998151863, 0.2985319157210376, -0.3753151438827504, -0.41408055873934724, -0.4505901153770307, -0.38031994559235427, 0.7470081735511906, -0.6051133626732038, 0.006033957738560804, -0.9579919599763369, -0.8884566596015347, -0.020622309783772483, 0.8986224086779049, -0.48777036808403407, 0.13101678456403426, -0.8971542004415992, -0.11265407288737275, -0.32183117791674015, 0.22015748338084945, 0.04509683719808708, 0.04355523346234934, -0.1865489646245332, 0.6214642642924447, 0.14772814436071946, 0.8736732639850132, 0.6250644247430956, -0.30420429211204664, -0.932308218435762, 0.45361241491829524, -0.0010201977455713766, 0.2996185767046279, 0.6436013142175616, -0.8994786270339151, -0.584524524774069, 0.21454627120461506, 0.3649039426907183, -0.18520888787664244, 0.6393446732593943, 0.8405785161893204, -0.2847452619289357, 0.7400664292975547, 0.6333938039529908, -0.4766142035901793, 0.868459575490464, 0.6010391229175568, 0.0161432485956633, -0.6995092587188333, 0.5948801893201635, -0.0024941517628572366, 0.6673563370455979, 1.0142329091760016, 0.108158756107896, 0.2847944455099677, -0.1743038732576488, -0.062165365115611194, -0.8124552692791379, -0.0014841500360204278, 0.09125281226478281, 0.4135071979520686, 0.54899552948628, 0.10552359871982865, 0.5501203187034382, 0.8261984013829458, -0.7598064734452465, -0.35125394586750935, 0.06301250573081091, 0.049978076594569036, 0.2230309929565829, -0.335833189330752, 0.5885947641745007, -0.07897951751901874, -0.7627772828798941, 0.5795403251979386, -0.5855584639666773, -1.0480187547367528, -0.4212486546089812, 0.22049513799214787, -0.5785973259085136, -0.32085299040336934, -0.45952895443790154, 0.7854419490937763, -0.02872158632564063, 0.10947714959611737, -0.8171255847734386, -1.38221876968521, -0.11734619400208063, -0.9480420859152604, 1.2362491957131185, -0.546123749860129, 0.7416034531107573, 0.5237166251699629, -0.6547461205709615, -0.9244246549764695, -0.26273967465329656, 0.7522596351298848, -0.49467596578262674, -0.05054529631430649, 0.3975854838523576, -0.19763841417496675, -0.05838600303764286, -0.8489598836085075, -0.31561095214521717, 0.11813624201146197, 0.6998414699785378, -0.6951224290197541, -0.30933466299741136, 1.371696134527669, 0.14759631968691805, 0.06140312318444877, -0.2564486949316893, -1.0184256037059753, -0.8997663464774273, -0.05478657650675023, -0.4601144845586715, -0.06541980784104755, 0.13607742088508853, 0.9135704514537932, -0.6565751213882207, -0.8979921510680602, 0.5854297684217887, -0.7512114059775148, 0.071475883259768, 0.6360359511611448, -0.20110379908095544, 0.5603746025437328, 0.2602500429929302, -0.6361593599576599, -0.6645758586055941, 0.014792970550257651, -0.3153079150561167, -0.5741356301115718, -0.5072255822786382, -0.28814177495946486, 0.1785296729675278, 0.8416806296097172, 1.0792957704552775, -0.7229133445306234, -0.052617174014950634, -0.08977313803106346, 0.13424812805225703, 0.8211831962849194, -0.5989536494588609, 1.2632986118412994, 0.5578400739467408, -0.13867300826977963, 0.6750327596449047, -0.29634329201447074, -0.33042300050386003, -0.530185036870557, 0.8959506888118964, 0.9451498718043502, -0.4317571140707577, 0.10487811203322295, 0.5324767855205623, -0.9101657607524756, 0.055307711451710186, -0.4514184166537776, -0.1390681498686881, -0.5908079380767961, -0.5415556280089623, -0.13528430773991398, -0.8905930665634313, 0.2639735483240895, 0.3121989054894606, 0.9565018478346721, -0.5456238228756409, 0.09481834883707878, 0.5135572009641972, -0.7706616221155862, 0.6165268291915321, 0.30241129588415044, 0.011059409254578443, 0.34095952354231734, -0.2394522204526826, -0.8055589589260446, -0.09925386363883003, -0.2691327286275446, 0.3899771654116458, -0.34148619144175935, -0.19145319534618532, -0.2833551508396599, 0.3702358489197408, -0.08627494179035566, 0.011800959844899227, -0.6564705344291544, 0.9713319710130589, -0.5788556050097445, -0.08241964076255605, -0.8033324392509938, 1.0449327144705645, 0.7646730493668955, -0.5904010138664503, 0.24808945384541758, -0.7797692732366138, -0.25660210519274523, -0.786279052566195, -0.2163666141436889, 0.662076397662833, -0.8115357527542412, -0.6252817296645198, 0.2750272740908471, -0.7530305416316503, -0.30887141084917663, 0.005270591689114092, -0.4378351006832656, -0.7671876318953338, -0.3895836449761356, -0.26516291326604624, -0.026722741364303415, 0.598618120180548, 0.5067626055259364, -0.7270467942658779, 0.1868133264032578, -0.0512426151528044, -0.913071692567646, -0.007742818674055092, -0.44235112602819204, -0.37832212865374326, -0.4703473017186022, -0.41003449436502387, 0.33815161287311335, 0.7777913486082415, 0.6806762758603006, -0.6102999546951939, 0.6545719775058421, 0.27560528019805136, -0.26569105120065073, 0.33886738329818983, 0.061090956008914614, -0.857828703332899, -0.3502761701261238, -0.6501483565177085, 0.5990441212031952, 0.622009431881597, -0.2660376120100545, 0.3588919358858742, -0.45958279013460435, 0.049826247186355754, -0.03637899709314385, -0.2533551281920321, -0.8700021456729552, 0.5888550989172434, 0.12316073621760694, -0.8381447192607575, -0.16191807120051885, -0.15002307362806283, -0.6342902919107007, 0.7530660815107275, -1.0033185939630955, 0.1098365771470623, -0.7768761437818535, -0.3138876981218666, 0.6218477757080901, 0.2094251019485408, -0.8881531460929275, -0.8090277752375622, -0.45732477188800114, -0.5657466446766057, 0.4590081437821095, 0.3437136656768605, -0.24155910930574723, 0.5576354657345124, -0.16688513378701697, 0.10905804381931294, 0.4134969657009533, 0.24234873906206378, 0.41530196869748703, -0.5129506209457582, -0.7343642741172591, -0.25874422782403617, -0.18376446789760686, 0.4142390760477989, -0.6366641353923713, -0.5411744019832005, -0.06578229385959836, -0.7435746271451202, -0.2982740888875872, -0.6211598127419088, -0.15446928085053047, 0.8047414491012893, -0.7561320170801477, 0.34808400671000017, -0.3200364252983148, -0.21337455912213432, 0.39741517978280544, -0.670795334850456, -0.8099126141389408, -0.00829049492186229, -0.48201766994165096, 0.5705406585887363, 0.6794697398913256, 0.6833131185742121], [-0.8922168819920071, 0.0899822267244823, 0.06642008165774804, 0.12899823689047363, -0.8850188611889545, 0.4108975149686962, 0.42086082509428757, 0.4735492868572104, 0.8361057458997423, -0.12865401639602925, -0.8396128452485492, 0.15248344699943162, -0.9141912466441742, -0.3184097785538187, -0.16408697588250143, -0.06611000967673197, 0.38519947639925456, 0.634755002832587, -0.009696026465358054, 0.6376435864605452, 0.9394792361843294, 0.027180491774985382, -0.4597054889331402, -0.07608048221115826, 0.8298814727363262, -0.6441779466858881, 0.2711988718341476, 0.43770104354948547, 0.4929405646332792, 0.00484154078784349, -0.07238404543292165, 0.9949578062034357, 0.7960511341718035, -0.787804643277562, 0.45605623547212293, 0.11482478688556398, -0.695557848778821, 0.3962095011917294, 0.7140069769318725, 0.07100407278229659, -0.6423388890134138, -0.30612070334004665, -0.01651332350063942, -0.6936633175548427, -0.4094480268677295, -0.2089389576902784, 0.26172871534785125, -0.4025058647071299, 0.6913766486868925, 0.11017136426491736, 0.37933013872924737, -0.42506275602622723, -0.20306881482211137, 0.7057168376078591, 0.9695293260661235, -0.6516780488860281, -0.03538989617262933, 0.08181988714175636, 0.7196208299970075, 0.7868872002454224, 0.9065108495119445, -0.23669478221751533, 0.6123536341415137, -0.37875970322681185, 0.4973616997714822, -0.47748309802636074, -0.48350136249465064, -0.30889052981029474, 0.3236750760985868, 0.2505885323538068, -0.8948533831959014, 0.3539775997399942, -0.5114114668868769, -0.8157739555953963, -0.8262425285059044, -0.9593168702090503, -0.5011397287471705, 0.14534025911898218, 0.007285194698832425, -0.6385316579247368, 0.610040858493923, -0.4803003762344198, 0.559321432702679, -0.8716272735198687, -0.6114942811791428, -0.021251162560706582, 0.630165156698024, -0.7595672674435661, -0.4808624815210459, 0.7174985818344617, 0.562139429588941, -0.7005145012326559, 0.17361828023007797, -0.04430704465439016, -0.12473389276833774, -0.050990744053231084, -0.543962105748774, 0.03993393059381659, -0.4434197643359141, 0.5167646023993894, -0.9299793349529386, 0.7713173600617041, -0.7086317459657324, 0.7791693935569187, 0.3603627238175596, -0.622391455960186, 0.23472391740439003, 0.6618847536980279, 0.5961750246801149, 0.029853074645129523, -0.584698252141621, -0.8670583234974059, -0.6837471943598705, 0.5995318617520629, -0.8452830444355683, -0.5073881248288143, -0.5083425238215056, 0.6994785266689979, 0.42292377494003314, -0.5687519350230881, -0.3462469457940706, -0.1245984604255819, 1.0979840865064443, 0.269464572168127, -0.005590789102960353, -0.7135727585173374, 0.06895574912364501, -0.4383171703730455, 0.6522680605252337, -0.5313028965524321, -0.22923568678032613, 0.8224632079475073, 0.8961978330466628, -0.4521882718828306, 0.13111308407975084, -0.06348640318828455, -0.9694085293980961, -0.2817182563499915, -0.7187412100905022, 0.9728151907309421, 0.12086001910693844, 0.33478927163590777, 0.05114989985023379, 0.6832569752541404, 0.7835618930509523, 0.6219432060938123, 0.6444768952029165, 1.021200125824731, -0.8807923769552471, 0.44173304735962804, 0.35420271528320596, 0.370375255100911, 0.09872061086127924, 0.3803362235989393, -0.23752837409508612, 0.31205453713042197, 0.2950725448658388, -1.347757946199491, -0.32634898257633493, -0.7014484338751082, -0.7028749058277549, 0.16468290721291032, -0.7926956871429098, 0.511933717359228, 0.6986076311338903, -0.7931130542452959, 0.753025134246815, 0.4025567319228167, 0.637518923553849, -0.619029965740175, 0.6078855179774255, -0.09362975134085558, -0.5977057787807155, 0.42506086355064304, 0.2535665702995428, 0.8770102678081597, 0.3574133806638312, -0.8087849960874137, 0.5601806978078209, -0.36431686228983, 0.5548665416771406, -0.7006637612626412, 0.2786311524140901, 0.8976993528341487, -0.9490446833070928, -0.4239792862040149, -0.8269981340500067, 1.1190965371539798, 0.0797510691428915, 0.6903641025239816, -0.08908067735070202, 0.6944458177067974, 0.7925134123183257, -0.056814420654832214, -0.6683323862288814, -0.5808028604521975, 0.12963333070761496, -0.5642161330978518, -0.21554167517165412, 0.812615045678274, -0.3253053857073826, 0.9316239306391747, -0.45086924226533326, 0.3702545883792455, -0.1645624327055269, 1.0479508398635267, -0.9068937354395956, 1.1139589709216495, 0.6472513586849877, 0.5621249388714854, 0.6788563868266503, 1.00081936559008, -0.2847344959185535, -0.05117687098077456, 0.7268190656367491, 1.1193418752408637, 0.5333889712164669, 0.1696666607551238, -0.5019409657497564, -0.9472203457609432, -0.7237888216901228, -0.5107211482183096, -0.32538443362799024, 0.5253187321270097, -0.41768779323065397, -0.16606703682465496, 0.7003072080403221, -0.16387560678181978, 0.3287682611000832, 0.6490024956207087, 0.7548192813813113, -0.25765299364711686, 0.04756143013246166, -0.5945772064135856, -0.65259240052226, 0.49787984599042023, 0.41922313219031065, 1.148734583229176, 0.6384176402078358, 0.15295044217615428, 0.28401627280112923, 1.0612452199265927, 0.8688769685672927, 0.8324478253577358, -0.5700037926019604, 0.4434605544728214, 0.21169674340167555, -0.355181649780816, 0.7541322584827755, -0.5405830426788573, 0.440277287198015, -0.15807485065928756, 0.061341239267409024, 0.032900080730538246, -0.7072833778020459, 0.44499480413128706, -0.6775276020394682, -0.7534732809859037, 1.0871285590339368, -0.04516562119919353, 0.1581469167888372, -0.45023167558861915, 0.12792287369147348, 0.7034141072852081, 0.7684613204978827, -0.03909883966001214, 0.1976939889409217, -0.15500974122932126, -0.20681307268335897, 0.23026620342299509, -0.14646414088910845, -0.38153150612555203, 0.741030814276338, 0.03459237933542549, 0.1324148950333789, 0.026574930232269377, -0.7649826656375157, -0.9048462185759517, -0.7543963507893261, 0.38452592497581495, 0.689910025382894, 0.5830021620056247, 0.6396316431238822, 0.33896041005047495, 1.0283192386909121, -0.8008255761346031, -0.07474678900516066, 0.12425047639496796, 0.5797772226782792, -0.5935591904208363, -0.6901771673060892, 0.7555336125558296, 0.3396433603570845, 0.5452259082090652, -0.14498953580080307, 0.757322458482447, -0.038016953659128355, 0.025101964149069917, 1.3140271307408296, 0.2286303000746625, -0.6279987865472549, -0.36236794642756626, 0.47760581092167886, 0.6682599448124817, -0.09614340098966545, 0.0032197012598518364, -0.6797350794095488, -0.5596647527666724, 0.9937818404822919, 0.3056738787488287, 0.01685128783149757, 0.43403975197566935, 0.6235805326501445, -0.3485298478761233, -0.4614452320786475, 0.1314593456200224, 0.35224073886430995, -0.47980083577236454, -0.05094541212515193, -0.21291982175878538, 0.6052924719666839, 0.8399675372185711, 0.6496349576176512, 0.9778793056761732, 0.8953256954553089, 0.38261310627260625, -0.7609689400871583, 0.43225459876914396, 0.7918217727436851, -0.9604612348393954, 0.1977216753089296, -0.7904788861831044, 0.2634206637267219, -0.8013404269605391, 0.5342844676376102, -0.7270959774528438, 0.8780887430409081, 0.846152142051895, -0.6832456405411218, -0.19507234149091165, 0.1584648202617638, 0.9594580007185323, -0.08520649598442792, 0.794303050461833, 0.6488979318737637, 0.21717840580445352, 0.2036583174044693, -0.8328740232626112, -1.0071526763189724, 0.4510722513568585, 0.18225555863395618, 0.23469042247965322, -0.39836676253915815, -0.003936713539434519, 0.8062701815717527, -0.46376859958973443, -0.5320885682246035, -0.14553276483994332, 0.9153294914502518, 0.07363264586320059, 0.11282318711118049, -0.7897013591044317, -0.9810273879680416, 0.45263156282005945, 0.7345170574305084, -0.24716944928386736, 0.5522595157724561, -0.01602377954956811, -0.017396960110339695, 0.1005941738187218, 0.354032074004668, 0.7840813598651735, 0.17746693418868217, -0.7777882788144181, -0.7529829121263003, -0.07261434615269717, -0.891564893210349, 0.6492106171200939, -0.40423173560058673, 0.3957796590286926, -0.11639621762817877, 0.31706244454413157, -0.3815440162849966, -1.0961011118279211, -0.9225618367574513, -0.9440992176341031, 0.46515774172658686, -1.0925700897925414, -0.6809420529702812, -0.6064967139981385, 0.9655036663930976, 0.8267992936908186, 0.673185940307153, -0.8159209804314813, -0.8617065319472738, -0.9679005453662944, 0.7219452654357457, 0.4022037973362331, -0.791275233249666, -0.9896169925089089, 0.22406282501514113, 0.19389324438625255, -0.4584030295352792, -0.2660858770666134, 0.5948626093970929, 0.12902184422549573, 0.39540389560818134, -1.030767739571143, -0.2265299603297067, 0.3630684560326534, -0.44323557352123244, -1.051550327321576, 0.9264904404278587, -0.5019922784784463, 0.5870778390777662, -0.541749885763112, -0.7567807954520589, 0.020769386918405405, 0.9017175972334488, 0.6736034841815941, 0.19919305940996357, -0.7700217693758789, -0.42292982333773743, -0.3079061108245626, 0.914317379047364, -0.8801316778451714, -0.877805901049111, 0.6953461706361829, -0.5129306004952183, 0.33661207826088896, -0.4167249999495932, -0.770322677608778, -0.9715960097859303, -0.2817434308240116, -0.2500168426030275, -0.0428728779090223, 0.05479788960080745, -0.05913956383131881, 0.27473506474912646, -0.270186469848416, 1.0478389518030509, -0.0053936294016997495, 0.1919540851690949, -0.662600999444137, -0.7993933191478197, -0.601613943774808, 0.9367701767688175, -0.6841336617310365, 0.137508796565885, 0.9050607703082358, -0.7737536381094205, -0.6993969385297976, 0.012425907512285384, -0.9342808895587535, -0.4328881330221834, -0.43786776799565635, -0.4524742356332831, 0.5434016484532554, -0.8979656798706112, -0.1729538618863059, -0.9440612271265244, -0.8430090823296356, 0.4558339358655293, 0.1228388097864524, 0.23059799987267246, 0.9413107104415884, 0.7256295155405665, -0.28883081694396134, 0.15082495592811462, 1.1093177022337923, 0.4029557106334488, -0.7672238675118076, 0.019052084433903174, -0.6284137811291005, 0.48252334057518276, -0.01466254961824167, 0.23712595007910275, -0.5339776033929329, 0.06988724807216232, 0.15901292378476942, 0.3968027226900462, 0.24172881690495152, 0.03143135743361923, -0.9595447558140149, 0.435900050317201, 0.18261783351480126, 0.2621455846248298, 0.022091300302706562, -0.3960841252945348, -0.6943070742352809, -1.257736448143785, 0.5069192981626836, -0.9630764667352588, 1.3029774781678238, 0.457760073977446, 0.995957658660221, 0.10691345050884872, 0.693023960827126, -0.7335786241982614, 0.04223190966941275, -0.6610945306961786, -0.8191318399050245, 0.19291907998060223, 0.5483972725543981, 0.8549173341295495, 0.28938862156422585, -0.8264963733090597, 0.5094891354344004, -0.00795571277317684, -1.0005963697492386, 0.1701612211770694, 0.26926353118312196, 0.10405778821632793, -0.40262945424728563, -0.10253346313589667, -0.8563905637773678, -0.5918819785405196, -0.2422839543563006, -1.2550464437904436, -0.08621889381121935, 0.27830735246587174, 0.5146653151912428, -0.05300785290833228, 0.9402754857698965, 0.04258181413432622, 0.24456924089984908, -0.5245080749806246, -0.7582017885890111, -0.8374573632739851, -0.7250055955821691, 0.5162102234307712, 0.2102440918464531, 0.14104305586136823, 0.5283497339653043, -0.2122182139811836, 0.26696257324362477, 1.0165411526578847, -0.17526633265945457, -0.12957750909581667, 0.3984373509858457, -0.12478902830483649, 0.174088813471232, 1.067407025641664, 0.13358771023256993, -1.1392098188736255, -0.19643688571925313, -0.8168982490092374, -0.3426651170197529, -0.3010015178382945, 0.8671930048987707, 0.39997645651507463, 1.1482171986070573, 0.21538872268964035, 0.7734756850049245, -0.42717188736676204, 0.3929792572231627, -0.7856980346132891, 0.9130139595375404, -0.8307146641517983, -0.7474227607385059, -0.958396366838479, -0.7416804166784349, -0.349187989299017, -0.5519192720211555, -0.49332963542427727, 0.9252649781592909, 0.009593385140620537, -0.2075592703249388, 0.2097702599393352, -0.4079559664651488, 0.017570233339782568, -0.1766396447598027, -0.8315628995775186, -0.9441902183836657, -0.8888201710399312, -0.7923786950955688, -0.6608147318290157, 0.8218652290294779, 0.8965092893447663, -0.4441664916514829, 0.38871714897003457, -0.15936099279948931, -0.49373751826655726, 0.2516646795011034, -0.2928258518909998, 0.3237221244300989, -0.4884651942521626, -0.4568874104970495, -0.36305042730672765, -0.1188427466493398, -0.06048557766367223, 0.906924316741627, 0.5914313365104329, 0.7982459342012382, 0.05729231912943481, 1.0983853591171329, 0.45643178491124237, 0.7571231590987046, 0.2940959133562442, 0.17673000485377358, -0.5468611157588371, 0.05936586639212529, 0.6947902533102039, 0.1583739413389795, -0.697814500900765, 0.14059372553519192, -0.34125762145673166, -0.4863019473493501, 0.05241612585879873, 1.111639014974627, 0.6923773649311675, -0.16422043192559305, 0.43594581406745236, 0.17265436678862592, 0.04216595213725694, -0.5081254891220421, 0.01118810795497871, -0.2695098233808588, -0.12135221024039589, 0.7691302088157798, 1.012912004570781, -0.17306494189325508, 0.38295659025589446, -0.692653878293985, 1.0943291700108215, 0.2763421564463279, -0.1164014205083546, -0.9040510789607566, -0.9734816256251615, -0.8257200784481035, -0.15808445568325136, -0.8324056510707912, 1.1906876035033493, 0.7073755871757353, 0.21547124079683955, 0.06106480627040442, 0.29717311712418426, 0.9824767705129183, -0.8457905180713218, 0.14616559290250156, -0.8074247212562118, 0.8430581879711275, 0.4639273275653756, 0.8988041853982549, 0.1780011516159783, -0.004355399388339249, 0.02741320351715471, 0.9674530807972161, -0.5704784606242129, 0.3369585308074274, 1.1331581108175766, 0.5999550126878742, 0.5763285040858881, -1.0442805188258484, 0.5275341895817801, 0.42825732597098565, -0.8916210927253098, 0.01457287753013053, 0.12115670923005781, 0.07424747960840758, -0.531168578165012, 0.7797327011960533, 0.3111690195402425, -0.5511951326613, 0.3310206079398317, 0.8718443590839607, 0.3451753982256518, -0.23884036580389295, -0.15617937022253958, -0.26767275872347407, 0.9871697134625782, -0.7017134026398644, -0.014182493344268687, -0.22707416540668346, -0.5666255789114065, -0.8546853247078693, -0.8460933328646807, -0.49759784584559524, -0.481174050166179, 0.222970146584336, 0.1927144780781671, -0.2965153814454257, -0.8059370599907549, -0.9078390456428389, -0.2844466731263224, 0.366615237808111, -0.7247993353009975, -0.2637788815039604, -0.18727326481297848, -0.418008733737086, 0.6510028984718335, 0.23981809675700377, -0.7107795903780704, 0.6835076953281936, -0.030129247023332403, -0.03722920095329612, -0.9223504794261749, -0.22022486893195792, 0.5027267629670928, 0.09259739727357652, -0.15512573158834475, -0.9700720863190864, 0.7979359263302184, -0.4491942398976694, 0.7903856352794858, -0.363862281747452, -0.5258617853675283, -0.46929222669119036, 0.07566378241939137, 0.6918048621783015, -0.6101853889093944, 1.049544829450004, -0.5716653944325553, -0.7511208260165482, 0.2560425606364002, -0.21923717389344843, 1.0074495029778017, 0.6712904395589768, 0.2305681773164866, 0.8079840324093349, -0.6366329539654116, -0.9809374438461965, -0.3517643667700538, -0.4910556553008729, -0.14234932599371972, 0.4902431382850916, -0.9320531845393947, 0.6508022497538586, -0.009747747830703535, -0.6628928194889165, 0.7220896998026007, -0.2113749602853685, 0.5120391594097101, 0.8674383056198827, -0.2713423107966351, 0.8038894803642078, 0.3726389767576427, 0.13607781470691238, -0.46784490630124903, -0.5741917468207125, 0.5722643556481537, 0.9225531188727233, 1.0695082139658496, -0.6126485949881262, -0.6425917833990775, -0.2601482935413522, 0.7345947677709466, 0.764940223403685, -0.5328111574457285, 0.1433625153909045, -0.8424162424602968, -0.5278720555837177, 0.40531967359958, 0.430234421020546, -0.2628972960303091, 0.8566691346667052, -0.8008680246552509, 0.07193920804395537, 0.32344643694502007, -0.7479855978557775, 0.21803808958969095, 0.16590632065976463, -0.579442164747379, -0.5100734634456455, -0.33114054001756266, -0.13292152447048133, 0.4066667132674629, 0.8882131512302108, -0.3721304267395986, 0.6276567951199895, 0.603320531933643, 0.4795832858467357, -0.20070259606988455, 0.4350592643528884, -0.5856273996471485, -0.44498121029668386, 0.4409995269554428, -0.9237943012430888, -0.9887789637603492, 0.3197410009948283, -0.21881867509134056, 0.28434770382187446, 0.011567445131344778, 0.5453719380839452], [-0.34041151860047014, 0.2533731368113825, -0.37655887311654745, -0.3694895475424016, 0.692429524993937, -0.7355209692513942, -0.9967159922845492, 0.9203117239285561, -0.4365250774780327, 0.006759129166202804, 0.878903817488885, -0.39114806420551096, -0.515431563495578, 0.14457987678471973, 0.6696425978781335, 0.549677237395191, -0.674325458540936, -0.9611912055179808, 0.019631082059699656, 0.0608196653763835, -0.7922775128163835, -0.3357259583131391, -0.5808756722608786, 0.6028123553432023, -0.9731488167384716, -0.8314299172616617, 0.990915753816102, -0.5281502797126338, -0.8914123821370539, -0.8011259287856864, -0.6723914153559987, -0.851703615158764, 0.13567477866005184, 0.9258729794041815, -0.4904286547814647, -0.33403621321305277, 0.11103190598970196, -0.3671073818004458, 0.804364850728529, -0.9369581068135054, -0.9002935492900889, -0.14079837499304348, -0.5517152774851638, -0.8845269458744749, 0.032012335415007365, -0.8780991488898834, 0.7133342978471094, -0.7119922838695573, -0.0873244612456979, -0.8686145160997552, 0.4082481304864629, -0.0314554721189253, 0.9290247320408589, -0.03422125689639044, 0.5164675298593564, 0.5046905800603054, -0.14261457456013282, 0.590811072179444, -0.3742438012410898, -0.12772347725268496, 0.13109981628444234, -0.9676236595218116, -0.23157970385544, 0.8020830571269534, 0.13131629327371597, 0.8358489853067101, -0.06573088270663836, 0.8809377963467642, -0.4950782170244657, -0.7253411643359875, 0.9653947429465872, 0.873493565793623, -0.8065765850820197, -0.6372101641822849, 0.7367143011242314, 0.14843695367911028, -0.3728876299699282, -0.2907421390565336, -0.13921143197983002, -0.9271983119623209, 0.4601927784203145, 0.9394880842686526, 0.8201034337529665, 0.00831468654015799, 0.3401641766375556, -0.02559654484553242, -0.36747730026321035, 0.16007789656095217, 0.7914719976276445, -0.05332408641050424, -0.28935989521380245, 0.36831754716779863, 0.13058953897233047, 0.3543384481571979, 0.01603698570646253, 0.1183213291203021, -0.9055308198648436, -0.4969480183541854, -0.6575603637493922, 0.6424979007623408, 0.15979249987978028, -0.8838269234254186, 0.7430673869680405, 0.007103488202877306, 0.8272128152794584, 0.8781962693273659, 0.6333620208338276, 0.9633153949599714, -0.9372865111185199, -0.34388937225921923, -0.11805621439954353, 0.3282824693019515, -0.7497749421381716, -0.6325269264090476, -0.6471325164585193, 0.48701897075335, 0.1967209754814577, 0.7835488254245617, -0.8729562033997667, -0.6071250567002301, -0.4420621541732438, -0.9171832700550746, -0.21100878884218868, -0.5422052016554084, -0.3405469482749179, -0.6003113535910879, -0.05080152548006957, 0.0036422438289877212, 0.20136870605520912, 0.6155142000652148, -0.5261063903265748, -0.057151345984015646, -0.34505892142691463, -0.23865144394175106, 0.6180676846480117, 0.8789335770305783, 0.4424665295107272, 0.8268806187728844, 0.8318675256893139, -0.5505426080020617, -0.6203571698518486, 0.8629146781813712, -0.5778391850136961, -0.6540123483538685, 0.5411207609819946, 0.6940756816725617, -0.7090139937647921, -0.2804728845693823, 0.5878057601734034, 0.08886581919830691, 0.8466839015005412, -0.5134464302020731, 0.22559502825134334, -0.2714619203658495, -0.5270818687503195, -0.715001501910401, -0.03280430676390037, -0.6855591317029578, 0.29578453723648485, 0.08785133417534943, 0.40867486836897104, 0.8530305358936017, -0.2199090998224843, 0.8595460684137071, 0.392343594127242, 0.9208437748216016, 0.8238791419925163, 0.534831440840128, 0.15136704533299095, -0.7000445016793613, -0.6302818125581685, -0.363192987791265, 0.3998488081641235, -0.10700945509373717, 0.38544798166410366, -0.21551821137119684, -0.6197039631890973, -0.6763422602150853, 0.46513281295460235, 0.15488335112425006, -0.5540316123265235, 0.10098486965462078, -0.12889814149332107, 0.43751951841159964, -0.2601448411781379, -0.6264206055662428, -0.9458119085425243, 0.6273378176756462, -0.11582498444869561, -1.0715568463865768, -0.158099982457996, -0.7124840508662554, -0.5828435850254962, -0.7307891153967889, 0.3352591815139466, -0.7751916267602911, -0.00553310042402444, 0.5445224912357293, 0.3607620333765118, 0.4444244380201183, -0.05249255489407792, 0.11079783171373998, -0.8008412333914127, 0.1562133029211873, -0.7531679229845262, -0.5128786503678313, -0.018730214991290395, 0.1654729225795875, 0.12002539975539539, 0.392199939613601, -0.6934704886571219, 0.8802796059415653, -0.7818376789266696, 0.6245594627746398, 0.28705478959780256, -0.37801073315677586, -0.6540855555068107, -0.9876331638795103, 0.35151603454840585, -0.32655240986612327, -0.2084041235351434, 0.5662946043905849, 0.12007374525962014, 0.17485405422348183, 0.5674503362458618, -0.7685810826953889, -0.5349570543370964, 0.6024576810937418, -0.120925334461203, 0.3717168093121834, -0.7327604475322018, 0.5806346304646329, 0.4232925374930125, 0.5888543985430713, -0.6442251445260327, -0.04088814818018596, -0.6344704687169542, -0.11533962413314154, 0.024076652271359838, 0.8863576306914757, -0.31990200434824156, -0.4710188128218056, 0.5006941067775171, -0.015709012758257725, -0.39665254362427205, -0.8046881558519687, -0.20207379156224384, 0.37130079102962993, -0.8660948018518766, 0.25655730863686826, -0.7657116140007998, 0.3723133072901719, -0.8110915360561758, -0.3645478382800832, 0.8143668850646845, -0.046400956527842624, -0.7070186646244033, 0.8953713669658475, -0.4871930430887028, -0.14682560696775118, 0.15493965044310984, -0.8689571890514058, -0.46411547189482655, 0.6100532644615667, 0.8084601218159139, -0.63999039909744, -0.09109289466564102, 0.35280760774373404, -0.2202897340853147, 0.1730493980211645, 0.7745907253341187, -1.1047645857685815, -1.0732477024532852, -0.9143996081843467, 0.5777851083037532, 0.16527923087664517, -0.38647195769097836, 0.2741018809489135, 0.16021098412181944, -0.7041499367146195, -0.7642352711437143, -0.03524477696097666, 0.13659578809445247, 0.16059523105103718, 0.3091730204475842, 0.2786781769891383, 0.6464059052953431, -0.8194537542533953, -1.0639546428227393, 0.16463711123282998, 0.5291792146612371, 0.6783781011701118, -0.5449330630092069, -0.19947033400083408, -0.19459919227470376, -0.16110684894193783, 0.36842550044077765, -0.047244107177174165, -0.4489121041088199, -0.5872243944128902, 0.8714296049831464, -0.3422549256157916, 0.17475151947025994, 0.6793581878038009, -0.5911574609035537, -0.10375694945116516, -0.8424514032159826, 0.9063818325531258, -0.8197288323827893, -0.9896170050015892, -0.07234140942383327, 0.7449949433126375, 1.0119250678841647, 0.29768425093307466, 0.8524538588812512, 0.44131682320168647, -0.32119100281240426, -0.42768051688987846, 0.05979878975506239, 0.2967450322954918, -0.8457557617507604, 0.4471135672213295, -0.029704616344591584, -0.37810723731942775, 1.0834315481824317, 0.2902930210006165, -0.6449302438102743, -0.43623680517953833, -0.6066040404768658, -0.9836136713244139, -0.06759981036770402, -0.2551596172943778, 0.7454854104818451, 0.4425713334485178, -0.9978763171862278, 0.6670324691498184, -0.5546833416721195, 0.015424795980945687, 0.5329667741919326, -0.5377915646252096, -0.7917905214686591, 0.050502954318279156, 0.4064447308948409, 0.7240643117245869, -0.1683007402374461, 0.7845046695841025, 0.5636578771351426, 0.19814780503417168, 0.899678217801851, 0.06613407549921418, -0.27955826397631844, -0.17765064330356278, 0.7845602736442341, 0.4545132121025128, 0.5770425061484296, -0.7642714113466577, -0.8669978791179025, -0.21013193281463757, -0.8984265437349628, -0.6434408573167613, 0.8137554604405433, 0.9703021333272708, 0.8360271126236395, -0.05738481748896085, 0.3715982095724977, 0.9192197455333719, -0.7477490240144047, -0.7921568199523322, 0.3397287669877708, 0.4084126936702269, -0.013214656083473128, -0.36816010338731, 0.19239983842209077, -0.3603166141193892, 0.40189905615978444, -0.3859517630882618, 1.0402076613138882, -0.7248315628782145, -0.6103187067751017, -0.5248743066414584, 1.0578760430963579, 0.5263269426545185, -1.269732945321649, -0.8109805822850961, 0.04466736803785539, 0.3160982257955434, 0.3420780612812778, -0.6064188652986998, 0.8462771323237159, -0.4559877348773451, 0.8500311252250368, 0.7619305365295976, -0.13221162733112268, 0.1968576576852219, -0.12359409600879126, 0.5685472342270219, -0.6801635432218993, 0.6701903269060764, -0.30555322333453916, -1.0539706605089336, -0.373250095736696, -0.6989665057584212, 0.9304052256281826, 0.8064016428570634, -0.4569691095347372, -0.45852632791646875, 1.0215426803525731, 0.3733647140319234, -0.19462865922362013, 0.2605255631964231, -0.33597679446430867, -0.9080364253402863, 0.5065296706977346, 0.3175090149028418, -0.6712581398026253, -0.22938768852616134, -0.3909031542997682, -0.7185853503976783, 0.17740912241832651, -0.6440957901421596, -0.14531822964463004, 0.1957753547362695, 0.053008545545044417, -0.5071297849890437, 0.9710557597936847, 0.2813371252009868, -0.5809850370990857, -0.21190424669673724, -0.6317968405481752, -0.9830880513414673, -0.2689245437904978, 0.785417748514399, -1.2201460644238713, -0.7321098166893808, -0.5088233065332118, 0.5980538357093145, 0.5328884449642514, -0.7166232371178012, -1.0321517087769232, -0.731401592875786, -0.7600603003074725, 0.05086098453441861, 0.15191713989936023, 0.3269492414077918, -0.2074221315122635, -0.9619252316706233, 0.7829896388114782, 0.6257133231972857, 0.5600828925996568, -0.9847881071617562, 0.6085157129612567, -0.12398989603399797, 0.9357374257324993, -0.0356931863000717, -0.26821363461697045, -0.1280658604986963, 0.4011219151518747, 0.7225146029925984, -0.27001952312581273, 0.4305492493436976, 0.08587808587357006, 0.04522856117136858, -0.042897179935674316, 0.7055650710662932, 0.44039109040755603, -0.10263179070254806, 0.1638169487995553, 0.47709664209758446, 0.16096825595710906, -0.7759718002867921, 0.8602759497600551, 0.3778998402936818, -0.9924020259844322, -0.6678853377369295, -0.26367314607867376, -0.3474139968305148, 0.9647261009869881, 0.5244521702714626, 0.5264458530790629, 0.18107770070330048, 0.8349069671929829, -0.15598920190466986, 0.24274141509010141, -0.9152479644598362, 0.9410790700029898, -0.19363922281326926, 0.006552936430055141, -0.21897636987799377, 0.3037624608212032, 0.07084176179695824, 1.002832153164678, -0.9021929619351143, 0.9851081677423822, -0.8346094197655772, -0.9397651137417762, 0.40812426990998013, -0.8216260728135014, 0.9557372566013558, -0.8016363579309523, 0.8521201963403275, 0.15121555190315436, 0.14563683305741013, 0.8471661884846966, -0.3809368929695584, -0.2755766847332768, 0.8516012918979379, 0.5998514896401824, 0.011103777663236987, -0.301566654306363, 0.5985304427028502, -1.1322341107068103, -1.0259411808248158, -0.7387684264670392, -0.7501943444952489, 0.6296655856339128, 0.030219806655475197, 0.42052791516007276, -0.41190293423815555, -0.4744815887503944, 0.33726683851955247, 0.2227448581406195, 0.05726275394142972, -0.3386925882163951, -0.37666658798769953, 0.4480732818769264, 0.473684885846419, -0.529406672660823, -0.7135847735662273, 0.6210892570122647, 0.5893183961684053, -0.871191683093507, 0.2765123988281824, -0.21673131435455262, 0.4319126941608204, -0.004372455577844391, 0.5334004576722953, -0.9891997402420604, 0.10188403586672035, -0.5162147210391197, -0.6825449012889293, -0.9514938978070607, 0.3530071783772901, -1.0796891037676675, -0.3308038850535815, 0.1725447576668225, 0.2721261380300147, 0.924073561771778, 0.12370455456654207, -0.9769162750961113, -0.7755345697219499, -0.6971226416317051, 0.05303139289492773, 0.6473360564111368, -0.6778026322541147, -0.17858841635183473, -0.002713467980391761, -0.34038419004250947, -0.994824845172848, -0.7796392275995969, -0.1604274140034319, 0.017539094990447257, -0.3050621530122043, -0.3731734631621179, 0.1439268743529033, -0.995227731990481, 0.9027450293498356, 0.6450505061581168, 0.04102548227646552, 0.3566544786305559, 0.08083810929728555, -0.5152232203334407, -0.873327818208229, -0.6689954606780448, -0.6467285281775629, -0.09805381136014887, 0.3883308104047951, 0.11461094892064422, -0.3068490800414381, -0.17285195506416517, -1.0201018503281083, -0.854694833858231, -0.43497042507931566, -0.41438408911565805, -0.9951909719067809, 0.8701745542236986, -0.05399789303284594, -0.611909932978329, 0.22051265130861952, 0.5586358391479334, -0.052437979567844906, -0.4546293793400272, -0.08596348137118427, -0.07141767126970604, -0.09471015824312541, -0.47711447695564846, 0.09991199330469598, 0.5163466715575609, -1.1212907751978944, -0.5851260371884897, -0.04657842605247732, 0.8539206569958838, -0.5697798718440096, 0.7655908889719709, -0.8997751036278165, 0.0730436073238192, -1.083877979862345, -0.7194427897242105, -0.3169307200889764, 0.5429574302458143, -0.3751980669546995, 0.8618428954920555, -0.16091461771241786, -0.2129919203621378, 0.3875136878058021, -0.9433452197994538, 0.905576005727512, 0.42608444914444266, 0.47740488489571176, 0.7287402125158042, -0.24439219642205115, 0.208172761880605, -0.10182350455080277, -0.4331482692545264, 0.49407691759256805, -0.04947332773960246, -0.27543920889137735, -0.8344104212588246, 0.2432470182919924, -0.4424612430976783, 0.16308841624591813, -0.14521484197072265, -0.2642709472221692, -1.0040782813609619, 0.12004887046426199, -0.41655504023802314, -0.47158216621053134, 0.8275906133984114, -0.5116266432966687, 0.029945567941632924, -0.49029915400361684, 0.18546165646163504, 0.7346296852369936, 0.3134504282689953, 0.5841691939963709, -0.050166108298575374, 0.8175158087721439, -0.9325513557211168, -0.0307461055304564, 0.8871432491985416, 0.702938965138545, 0.9189496243762165, 0.13024151528228123, -1.0867224139187648, -0.08715604942580994, 0.7842557599306321, -0.7955758992203293, -0.4753635218579311, 0.18589835472301391, 0.06842061966669549, -0.012049844141010567, 0.582007205512988, 0.45710879365390406, -0.4631335324765823, 0.5015608809844099, 0.08843385573535267, -0.31363210665802044, -0.38834881049870273, 0.14072493494083207, 0.12007645136512078, -0.23432076973936974, 0.42361889588378726, -0.5848973122296897, 0.1508130077634564, 0.14752234034851086, -0.2745897738935821, 0.001355687397034893, -0.21562095301649384, -0.21270815399587878, 0.534589376168947, -0.15299061903841937, -0.03682075378400254, 0.6487914256464447, -0.3168155179099039, 0.7720242595014668, -1.0827057340208248, 0.3943579646525122, -0.6537497250137396, 0.7262884142041891, 0.45537696535422734, 0.542907338278594, 0.6893421914417215, -0.3234737068638641, -0.5737078765430974, -0.7842536720127674, -0.8551901716446664, -0.8922005670552445, 0.07169019979415077, -0.33683704317102364, 0.9173814256860879, 0.7605568946697405, 0.8270491439284267, 0.10792852597319791, 0.4168665367647424, 0.3624433081153228, -0.7076003380490721, -0.31253347191891556, 0.26577064941646544, 0.9647919626397105, 0.14852945704507445, 0.2899359160859245, -0.5194906148945656, -0.5535355331130132, 0.6767186216462178, -0.04723911414873968, 0.6336197330875055, -0.3632495514308515, 0.7747117385286943, 0.44129260699673173, 0.9687120697703969, -0.4930287171618592, 0.04439383171638941, -0.82695822079605, 0.933839468861463, 0.25740486672672497, 0.421659259289958, 0.3840382292501564, -0.08869843616089401, -0.4195152540143394, 0.9702771912295047, -0.8212064610412178, 0.5791990303978869, 0.4487416681481835, 0.8515940635954579, 0.6266684665866575, 0.8601123583313289, 0.6926347726710185, 0.7129994670452614, -0.4895335153449395, -0.01157261675491765, 0.5712562946559464, 0.48562324625027, 0.3096129471824522, -0.6645369322939215, 0.21262132686808, 0.6037826135374201, 0.239877980985958, 1.0168212380960446, -0.763943505870509, -0.8287996337167884, -0.7103308709189656, 0.6960648458222423, -0.7172924031549609, 0.9125757691183012, -0.4450108009431486, -0.6106093848494658, -0.5764919599746423, 0.8665028666283618, -0.6133277841365119, -0.8275113853392946, -0.8712047085663637, -0.7304869578449784, -0.4825632842222807, 0.31952815543426416, 0.8608389482600923, 0.6975538031773607, 0.24247077832464026, 0.7190690625374636, 0.7707320437985872, -0.6309546065909394, 0.5194085565253882, -0.2796369761834226, 0.6391444150975715, -0.7445904607923897, 0.24910015567740876, 0.17622509664413186, 0.27943763537774363, -0.8861475508633321, 0.1957959786613998, 0.0626047234782885, 0.8826800739400278, -0.5689105277736757, 0.6054440974853446, 0.035782920817836406, -0.6467764137326577], [0.20741223212726023, 0.8528477340327691, -0.20765450507782446, 0.6040308544837387, -0.8758981779846633, -0.6749453779374652, 0.45433622698811615, -0.7025016811048077, 0.7841906305356581, 0.5296151124503667, -0.22807633476141254, -0.25248203079043496, -0.058305761747172724, 0.6285587082885873, 0.21353210288055124, 0.3382402136040159, 0.6999010667812291, -0.7001767455614321, 0.23004064442474048, -0.364351857084823, 0.6254994487217826, -0.20689180926716033, 0.46029317844979567, 0.31272276799939247, -0.19294795775725881, 0.04240390057014887, 0.4708611219948944, 0.08974959247414271, 0.6907766948559786, -0.04270145340413478, -0.282116342018752, -0.03430005821617943, -0.3684327262800271, -0.06195785440216694, 0.7553859235637654, -0.5277374353796856, -0.7105938977348898, -0.2690433218789655, 0.4611217342797637, -0.4857686341543243, -0.5582930004267409, -0.6936117057615179, 0.6908278196997996, -0.23449102470332572, 0.5612113798951736, 0.2495062947204101, 0.45266118216133755, -0.28484968239608494, 0.01816780064920203, 0.4502692396740491, 0.21546442499575447, 0.03348278479068578, 0.25059719156194693, 0.20443813148628331, -0.45864531714815193, 0.7082924990136441, -0.03184971433183037, 0.7086249500007749, -0.5830358679584027, 0.10713658350488053, 0.9591008050690617, -0.0645190742771178, -0.2646485282453499, 0.9370698135924567, 0.17319298114881201, 0.6569060933769364, 0.9827573714592683, -0.2641665447515792, 0.7388589720186692, -0.839516197786068, 0.2247636144187484, 0.43150355934300166, -0.5067518831928154, -0.41579701327530655, 0.8895587986960227, 0.8176003410010075, 0.7374775953429031, 0.3668727916626604, 0.31637046974695415, 0.08688613471593265, -0.8054175902672459, 0.36052808245239043, 0.33373842077139315, 0.039686528644044206, -0.5409910798761903, 0.08179673114206842, -0.3365527963470527, 0.19191388087667716, 0.7720118404426215, -0.02334623847121012, 0.859481731610356, 0.25216769785708576, -0.8545805862283001, 0.7463931501239663, 0.8058010511425772, 0.2890074768556297, 0.6009674600974569, 0.35601804172391704, -0.35237552074583683, -0.17249512012566942, -0.7807988247377804, 0.593100203190287, -0.43558612016002946, -1.0795121484104606, 