{"layers": [[9, "relu"], [50, "sigmoid"], [10, "sigmoid"]], "weights": [[[0.6596487870090118, 0.4111172557046318, 0.6154633849783275, -1.3493159399785832, 0.1935141654596433, 0.1809810498461905, 0.4828831127301844, 0.701925295125463, 0.7322427189525468], [-0.5347059623776721, -1.0536141199565272, -0.8045483252404064, 2.034787203872878, 0.8214125026884249, -0.5541610887322872, -0.6657770626878845, 0.14343267996160544, -0.7080919443449948], [1.326010764608246, 0.7557711243276174, 1.2087311244790138, 1.4299115698930964, 1.2749711288977, 1.2230437071964946, 1.1017445339650378, 1.2484315176303324, 0.7143288727076482], [-0.01203044870248651, -0.652360163456999, -0.18206083289570152, 0.22896454260726332, -0.360614313808878, -0.05368720563764776, -0.8433520696931763, -0.8156298787104175, -0.6136935302717613], [-1.3317476686094283, -0.27365367049292794, -0.7151891181833181, -0.41799595193492173, -0.7237372295684491, 0.9077791713429625, -0.8956046981209704, -0.48090457078645277, -0.5179768959595035], [-0.785290749492939, -0.2878740368616751, -0.7624553429207164, -1.7107133565020227, -0.8315568930744188, 3.521505032377426, -0.756248897462421, 0.40089985675450535, 0.24624843827492296], [-0.3129824772812541, 0.7860292700121432, 0.5859609753489923, -0.4110205537010733, 0.3476124351896661, 0.15552965682274827, 0.23821361333329166, 0.5850570631726985, 0.23833806488747533], [-0.4393712537670736, -0.8002111398825632, -0.011868312733097177, -0.02682842420522301, 0.2833190946063192, -0.13723865418416775, -1.328876830924221, -1.1764418366298892, 0.19616680754618018], [-0.20273975323095697, 2.18236414523304, 0.25626646444538376, -1.620044027432183, -0.5668963254596984, -0.4669077384835709, 0.10231023984848865, 0.2480969349842831, 1.1059822935190033], [0.4989273401800581, 0.12901847125906402, -0.09130295461602066, 1.146596843095704, 0.255071457844202, -2.06182381450177, 0.8640987580592986, 0.7930097437149437, 0.45589325602945036], [-0.047211419717729436, -0.3567346795527138, -0.3015514920964092, 0.08938466607896664, -0.24854503397136574, 0.6263470237224191, -0.3846833195677711, -1.0408665967095092, -0.6169584107540838], [0.03927772641222966, -0.5529883045637707, -0.5681632752074857, -0.5929744774925179, -0.5146454794485222, -0.43288040533261757, -0.731367599423711, -0.7514655010906834, -0.6432601273265156], [2.6545779429325154, 2.525881482883431, 3.169978484602385, -8.684483428597888, 2.735100652450439, 2.7750204920496033, 2.3522268761488854, 2.3591456990614383, 2.56017561001963], [-2.5315264861588402, -0.9013555089060682, -0.12866310965509842, -0.9665388847445824, -0.8128165488807643, -1.2868552985913846, 0.06356703716641408, 0.1510486311164114, -0.3221435331348085], [-1.1260113762482995, -0.8052203864942801, -0.2829995040247975, -0.14352019684115103, -1.09568467953905, -1.3412951159885385, -1.7368528397832288, -1.7378465694148324, -1.1600815605772445], [3.877593910754552, 4.588858861271265, 4.444951882586237, 4.389460927138523, 4.883322763457775, 4.849482332421088, 4.404425083978644, 4.353517558852902, 4.802201842684134], [2.94568697051277, 2.6567722766610236, 1.909422433932402, 2.551598109425516, -7.604730989562076, 2.9588233372697568, 2.746119302482023, 2.9424961118439628, 2.6339387746482164], [2.163734918580059, 0.7413995381355005, 1.4228044761148615, 2.3721111297101025, 1.2460729014505518, 2.388848082604248, -1.7748311875427183, -1.5035586719065355, -0.10098240092981976], [2.23195446981435, 3.4901245927623803, 3.513631926414046, -11.919715765181477, 3.325775242511189, 2.7009899240372803, 3.5853552944691245, 3.543641698149194, 3.5006006394903646], [1.1319899322034954, 1.421733408313377, 0.8794030408949034, -0.5061867823459014, 0.9144033646741162, 0.047071534230971455, 0.6426129123681246, 0.6209237661652142, 0.32630819674548894], [0.14333482285627172, -0.6934820374535656, -1.7087125125732088, -0.8242205935402661, -1.0720712640926044, -0.9749919351981671, -0.3807406928787562, -0.7486861951555809, -1.0461509514148575], [2.6760846725715544, 2.492578954032667, -10.617041063012113, 2.314607891194815, 2.7990477690476543, 2.9336789622766988, 2.696954139646727, 2.5296190668460063, 2.5714930670324443], [4.605374791331339, 3.868724202435886, 3.6284314411993592, 4.212461490920889, 3.41151369660136, -12.239592648954869, 3.8594139709126645, 3.9011268243929913, 3.799072986713747], [0.796896876811095, 1.0843430124341105, 0.9859677509559625, 0.5566289104647616, 1.2880684304797796, 0.6817151175208673, 0.43728878496960966, 0.5534348364521974, 0.9866736170806392], [-0.07675573314503228, -0.820734062555069, -0.7929456610258124, -0.3553287025154017, -0.6420769469650772, -0.12620911310180652, -1.1965705586419286, -1.0789422330956078, -0.9446254909098306], [1.2312438877793035, 0.48378647778598605, -0.8425566622554709, 1.7073589972770322, 0.769460285126124, 0.2704375945859948, -1.4592247697002734, 0.06406585748095177, 1.0537418029167875], [-3.0714780924086775, -0.4676193960345744, 1.3390020529386344, 0.8025906860375881, 1.0281512987517134, 0.4992531310758778, 0.06258203238172844, -0.13613618962033777, 0.7719254534540562], [0.6271065340534162, -1.7183915493398092, 2.3941085305851404, 1.2482084208536544, -1.424456098407558, 1.4272380249752614, -0.5062993518101643, -0.5182778221626853, -0.5453787262031061], [-0.7749023387653031, -0.5002049452329869, -0.42846487029879254, -1.3548760982023502, -0.3489597982084511, -1.3593632464562146, -0.6229915135334455, 0.36345245497201006, -0.40515256788556603], [2.2991393875496025, 0.5603677453615131, 0.791196527509539, 0.6521399867197221, 0.05393222145443754, 1.2935265631406785, -0.6985344880099286, -0.1046678328192598, 0.43702429935952064], [1.7353855134832723, 1.4020156403259143, 1.1886954324615788, 1.4785323845645415, 1.6206031842211939, 1.8221109714560373, 1.671883321372892, 1.654213013995446, -6.350307428189284], [0.1100620784462222, 0.4948211604286872, 0.8119871554007269, 1.588193720994146, 0.6388208056588189, 0.9881291356034132, -0.49478685506478365, -0.09863747675225983, 1.0796568842210268], [2.0477118785807895, 1.4300719981287149, 1.3706509188156069, -7.612550995368238, 1.5479339484591164, 2.0987889661267864, 1.6171042174468169, 1.5084886501041688, 1.4225983384508414], [14.219533840275371, -5.698736195104651, -5.3666252372260494, -6.183654681222963, -5.1326640013365195, -4.622209691777378, -5.608042507390318, -5.641835771851366, -5.420454510549094], [-0.7152723092115286, -0.36945361214280237, 0.24700473876858758, 2.7721219125960532, -0.5791796205865565, -0.34367827522299754, 0.2567295285880969, -0.22599753946178658, -1.375995300935203], [0.9203500300865399, 1.121094193947457, 0.14213455908139713, 0.867765963371039, 1.0466302089158759, 1.0267026637431547, 0.8100406748741752, 0.9465284638332342, 1.1454638404735704], [0.04250798313494982, 1.4139947088971996, 1.9251453734596313, 0.37987560203074255, -0.004728256361471737, -2.01986393915613, -1.0167785767619584, 0.2664721761644065, -0.09275630852558986], [0.09427257854890181, -1.0635047212991942, 0.005720169848220977, 0.43880519666305917, -0.31184474305661003, 0.012523307032754831, -0.7561241828333909, -0.6130538086966643, -0.4780282349800633], [1.3716003338246272, -4.595636758515166, 0.9819986787088576, 1.4712392623795436, 1.3857720935806215, 1.491481334665026, 0.5867347486057259, 0.784055743189732, 1.03428684028032], [2.308023032158392, -0.6418007020122547, -1.397201635191498, -0.7483064595723206, -0.6933091667732123, -1.2525294839088064, -0.9220435721453135, -0.9135512245839148, -0.7436111036995761], [1.9282065356261748, -0.1217791215757831, 1.7548828284328135, -1.5162433798926773, 0.3821139957466325, -0.13767918489284853, -1.1041590485059256, -1.096643175222606, -0.30504699391043727], [0.22717803554135105, 0.7182027333656328, 1.1643832588061507, 0.607050648474335, 0.8210333854566331, 0.3836392180944886, 0.9351371182245265, 0.9964368173607759, 0.9750431858409776], [0.8271798183730379, 1.2687500596983046, 1.277918641002655, 1.8330806771751431, -0.3929596002346, -0.34712737778104974, -0.37270779516420144, -0.9049669419983167, 0.2595773337684251], [-0.14083802902070885, 0.7759604163780806, 0.9694276323904398, -1.577147897230609, 0.956598735984983, 1.084703801221995, 0.5617605389044119, 0.1505068909201618, 0.357295730398249], [-0.151686803048172, -0.8028523592000322, -0.606284952201927, -0.7128998236048006, -0.48956768993706007, -0.5364923243127369, -0.8588231633913834, -0.8119047626730682, -0.628469556617096], [-0.5582039947989506, 1.3411988021770123, 0.33821841675376935, -0.30495205997602726, -1.4447721340563504, -0.7188617484866867, -0.34848630526540747, -0.48036879073737826, 0.3180538803602347], [0.5554597241107813, -1.515828916144278, -1.3402338589023353, -0.8303135640225092, -1.015405024626115, 1.281506432471291, -0.6791983441449845, -0.728367290207753, -0.936483303508359], [2.068787642273863, 0.1228339689073546, -4.204928897810314, 1.8869384376069753, 0.032910383719886326, 1.6739441978952099, 0.04494361968936771, 0.31050119037241886, 0.3585616281786535], [0.5946100362655253, 0.9929239367840368, 1.241683828109851, 1.0424584032412731, 0.9688568091339357, 0.8051343588309097, 1.149190913419147, 1.0282425896509841, 0.9809905092270373], [-3.330137116692664, -3.2877229840529605, -3.4501363773760034, -3.17789916596042, -3.3254397491912253, -3.1075510565885773, -3.3921652905878275, -3.415301145889914, -3.2644268725724404]], [[-1.850946453191292, -0.13761108913299275, -1.8210709739917306, 1.183904398690005, 0.31883989564654946, -0.9258533809865521, 0.10050486812607443, 1.680462957633321, 1.137686400531799, -1.4771906103363124, -0.06350620859203723, 0.6035171343475481, -1.8255559333819698, -0.06592230815848464, 2.291907091993676, -1.0613900880045748, -1.3713313436125643, -1.4653840220288568, -0.14761887255670886, -1.4852227951605732, 1.6019185362656359, -1.1385972176560846, -1.0393931707235158, -0.6422045006463332, 0.500109185239904, -1.6085800019839713, -0.4765199402749813, 0.17467926223544483, 0.7272156332259828, -0.14839250629715586, -1.5819975716058894, -2.3195872709874155, -1.0340180867928022, 0.6855481348041967, -0.9350706857283675, -2.734152493810817, 0.4053674058469772, 1.4135828354058904, -0.6411885815346491, 1.0641841276054056, -0.9860642232791605, -0.27616959760288734, -0.8561872573020273, -0.047357791351487204, 0.8114118007657705, 0.6649962030521457, 1.7494262618851104, 0.3209035020932039, 0.15245337498774367, 0.7572641101988192], [-1.5178053568446617, 0.7314885338807747, -0.7701102015263673, 1.2987775928731424, 0.494197567596701, -0.30972725461964434, -0.6367749778982088, 2.1315038385372445, 0.2216265134912824, -0.5368071504598062, 0.5638956124370186, 0.39229698798575824, -0.45752244851399754, 1.3251405401834635, 1.8490047522905062, -4.06467886887933, -2.406471195135359, -1.6233928412969887, -1.384684026292928, -1.5537171107930416, 2.2295515557488885, 0.31875753136138185, -2.308725117615312, -1.554027541798325, 2.1010796793731554, -0.7315562536150638, -0.07088383993805099, -1.0877365170840598, 0.6083092785632801, -0.2612134150963574, -1.1424939204625124, -0.7094016633958113, 1.0868706341462313, 1.209119902460421, -0.5553801791058571, -4.042260619808735, 0.808146798036881, 1.2251135634332477, -1.4490362360917703, 1.1159932469346208, -0.2942234725973914, -1.2093993911567045, -1.2079116556376968, -1.389177593397546, 1.357654572139812, 0.5907277805826561, 0.6859360490406877, -0.28013250851312843, -0.7595499603277515, 2.7838358293571344], [-1.3843362362304659, -0.3383045092214748, -0.800237990156464, 1.946590896420271, 2.142947069929611, -0.5398328399663762, -0.6546658390945723, 1.9997206596603907, 0.7794440798924961, -1.4647831842364796, 2.824693278995849, 0.42779670688356614, 0.14014970176410674, 2.1369642744466186, 2.2824942144393305, -4.153680756371696, -0.9876688227550342, -2.035287277623124, -0.03570950436928773, -1.9957508026646311, 1.1068930498738656, 0.45971565648651963, 1.3255453605496437, -0.47131317781936494, 2.3601881150901267, -1.572487307047636, 0.8456534572605897, 0.02549598124855948, 1.467487370217655, -0.40184226977692916, -0.6761626133915534, -1.3055291043021369, 0.13128365491886834, 1.0652569157083922, -0.8339330838689814, -2.9449414639084623, -0.011362204311704, 1.5843776100707743, -1.5416839891688172, 0.3211690369029493, -0.03525235187038551, -2.1789301428929257, -1.1598572859155547, -0.19552059069339925, 1.1793483789770938, -0.23832268375056234, 1.1814222137993198, -0.6979159810257727, -1.4581465830526839, 3.736996051908992], [-2.4095651477549045, 1.299218838964225, 2.950253112169773, 5.682945196683128, 3.507446699717608, 2.6360643307689093, -4.791726568815956, 2.328350849493236, 1.3130726678505047, -4.551560026350852, 6.4659577991469925, 3.8786970872960045, -1.0274312206074379, 1.0258913505535203, -3.3057171911121452, 12.554103851969197, 1.1153353728447757, 0.11032037100520352, 4.434961886003231, -0.014499242355174344, 3.6513898474887, -0.7792325463328826, 4.705429754159577, -4.958267124027383, 8.761366699775808, -2.093973102134743, -2.5928719489549605, -1.4630374231113346, 2.4743239702289985, -0.9439814886949106, -0.666180299917152, -3.4111453142711223, -2.2233973712595723, -7.17617724692056, -2.181902162438318, 0.8525772037890171, 1.6489612941433245, 3.91292167388783, 0.08635953305937148, 1.5701219551837, 1.563854463480061, -9.196862643265888, -1.9653096057983666, -1.3386833164780425, 5.360690070140607, -2.312441478918497, -0.988472826174563, -1.930641874749912, -6.857481665945468, -1.650338368735091], [2.05915572449665, 1.3828908647839815, 2.765224828377444, 2.1466176758768265, 3.2869013347374683, 1.496550402147909, -4.136245136153141, -3.7726387248333673, 2.0045253481361502, 1.2011511804218935, 1.5937706820844548, 3.951036028817719, -5.025097996267881, 3.4204121649467636, -7.040933115431904, 11.20349569896013, -2.912782649454447, -2.3235292392755302, 0.7062374535531003, 3.89335643086665, 4.337136818488129, -6.437821750105765, -2.5496179442575184, -4.259292916818574, 6.188693703122846, -1.5863026050069318, -2.723943021649848, -2.008459183866876, 3.63587801778042, -2.494254999951621, -3.5843965542727942, -3.3261471678898933, -3.862480306651125, -0.006602052786333409, -2.7867823252398143, 11.856732928129217, 0.8974311937122117, -1.9820830599149422, -2.892058881039893, 0.17455133980201365, 1.195144031016027, -8.272071919123624, -1.7189051221231282, 1.394403440485893, 4.6835530991527055, -1.312187868634066, -0.8647976046017924, -1.2222878322934785, -9.026615048847672, -18.916203676609854], [7.59464794840676, -0.33655488143513296, 3.4101330627369184, -6.269928240412047, -2.0870774499401232, 0.7986801149774434, 1.6452263026656722, -7.868865293310165, 1.5298899199262648, 4.985439052773248, -8.249836382037673, -1.2372020283498053, -3.6490842454257635, 3.6834587050892487, -9.63087819924355, 5.3078804903799846, -7.779036983685099, -4.827111690112782, -7.11876976362365, 5.342512197024006, 1.1773818440819077, -7.744675721219429, -14.074445494835318, -1.0832914581230353, -5.5388038338707695, -1.775808754986072, -0.9099562089831666, -2.5639801842773724, 1.664971883081591, -2.606735613572946, -6.186477760560304, -2.1136728064619783, -4.319030378169269, 13.301329493596118, -0.04105311241857393, 10.072386805778283, 1.8489567276891614, -7.371593719958337, -4.9875131262526695, -2.3261969709466888, -0.15726410291468745, 1.261399862339159, 0.10000117076404719, 4.87581653248911, -1.2768157411001646, 0.4508512499315688, -3.9076276310804614, -3.1236701520746335, 0.34768726928339677, -5.502793703196205], [3.9210364949519247, -0.7969479137997062, 0.3634717469397886, -7.001010558050313, -3.9078896487882204, -0.6810438540624477, 2.971651190386366, -3.798385567959819, 1.0111826166334867, 3.961028810474863, -8.541681493320501, -2.954042516257361, 5.935634936172506, -0.49904431934970944, -3.4206466988567494, 0.8144511246569749, -2.0484326107095674, -2.5952832223641376, -10.56415936944046, 2.2762338885421616, -4.825659840405621, 1.4407928918501616, -8.332836883914865, 2.119707887839383, -9.778308740744688, -1.5296921481910564, -0.349252131386147, -2.064468920909724, -0.4518115450676085, 0.2916611478621885, -1.2564477151258457, 0.6599367265660121, -1.0228750587017776, 10.499406272373575, -2.2053502922533363, 1.1189248476476914, -0.2646549222366044, -6.2296740010004905, -1.9884714379161474, -6.244765672587351, 0.8045032466700597, 6.990110875989142, -0.8286738509330054, 1.41668052739988, -2.926586893597469, -1.9058501332260305, -4.519301300683296, -4.167427540523313, 3.5376791974819395, -2.1417400842752645], [-0.031234854570410385, -0.21769401729566934, -2.3207141036379206, -3.398337469278915, -2.927628563165499, 0.028637614593398576, 0.8210468003692952, -1.619531048403523, -3.2362558545843463, 0.6248321797166693, -2.9856916257605715, -3.36453648217889, 1.0869800637028952, -4.2338398080920205, -0.4355792352851633, -0.8922031755475651, 3.2531514944183506, 0.19662137358332288, 2.9346705079689346, -1.4042535233384899, -2.285128585300818, 1.3790143002315454, 2.415119761830895, 2.638058979876429, -3.224771806863871, 0.6882789902911487, -1.176083712493187, -0.5418885445991246, -3.2593674567522806, 1.422223301289167, 1.058941857587862, 0.7605530417958759, 0.27020896334418415, -4.720149252148782, 0.4762262422648567, -0.19718644261847368, 0.06993246950412156, -2.397982575349835, 1.4705389303743854, -0.9898073638466022, 0.4687161271057113, 2.474248916798125, 0.21283267856949376, -0.926916518875267, -3.264417320153307, -1.7885536524115864, -0.23818973689609554, 0.24652148889050474, 2.5070230942079594, -1.915264605687338], [-0.7216638413471257, 0.624826249770447, -2.3615491428775788, -1.2628518199768486, -1.1870094547967973, 0.024421400149645257, -0.21547968761610192, -1.3268415026662996, -4.226234452499071, -1.0560176680873918, -1.1746289217526036, -1.9630088812822717, -0.8705833477452448, -2.9570651029862267, 0.2095241961805952, -1.6956494629360672, 1.8340654632268758, 0.6961299350688959, 4.867718763403411, -0.6089516827816577, -2.444010945424783, -0.8217932064218172, 2.4178060913497412, 2.736015832913986, -2.975618314600762, 0.8926778856498304, -0.6553241828195925, -0.965220015061161, -3.814031690675228, 0.848912564896612, 0.5538727115501443, 2.021731654967318, 1.3995487300656047, -4.239151629725517, -0.26764436163058164, -0.6670590449012646, -0.9380381563208812, -0.5689328279450213, -0.2889943153227627, -1.0646882482886757, -1.1212752460047626, 1.9942596491269966, 0.23675772568735048, -1.3068049237271062, -3.290919066470537, -1.2009708424996333, -0.005791430713993217, -0.17445956278161281, 2.8489050476908906, -0.836172347199821], [-0.40512047960775754, 0.8869742665349287, -1.0812439075320885, 0.46169951567970385, -0.854178375516745, -0.6534893716645157, 0.8309077370857161, -1.014157206833649, -0.8593736710912457, -1.0758661194473254, 0.051461420061551216, 0.8073884240462571, -0.8814179209687026, -0.610648545330214, 0.46219648589015344, 0.31603458585963523, -0.7477297336389502, -0.47779494659702504, -0.5992139561845774, 0.36706890821815896, -1.1027288652544007, -1.0381813491301155, -0.5021506783884757, -0.03566018812163638, -0.8073195750379566, -0.9945623007604488, 0.3360298805556253, 0.020557518542412945, 0.22540731614298018, -0.6368871737006326, 0.2874875519703662, 0.5906011692095974, -0.5649203681133605, 0.06573958163260593, -1.2321584115516147, 0.19238025119163193, -0.3494305310611898, -0.640173392980253, -0.08932029789573036, -0.724071733220167, -0.4605156923318455, -0.4830796668880109, -0.294674323212554, 0.023915490543357332, -0.23863851432693947, 0.13506946175423518, 0.12094656282340353, 0.42900490430589877, 0.03863799024722918, -0.09329812983851896]]], "biases": [[1.636644346303098, -4.150470938288314, 1.2705810794134034, 0.37931827667026136, 1.0101655929956033, -4.19227367895693, 0.36305636181861045, -0.608954499491404, 3.7441558686509446, 3.008626851477227, -1.2201367584822118, 1.7288089069616126, -2.505897261904957, 4.38660311868088, 2.4868591225242915, -10.406307788232485, -5.375675839331941, -0.6039683573783949, -7.173087754967839, 0.303840494622501, 3.3455056851016436, -0.9712089403775381, -7.9298025868716016, -3.7721258341255086, 2.514802200890736, 0.15587240456501603, 3.5625807080253264, 2.7686336358178876, 2.8902804844879117, -2.5952766733677817, -1.0333419391182685, -1.4683975117335346, 0.09565886459764777, 14.738634597401852, 1.9099909729469586, -0.5811553433268827, -2.5055981832389085, -0.48255751286464144, -0.5044012111291964, 0.7385745079009697, -3.1217940665327366, -3.0573817824516474, 0.5849569994991218, 3.208472099840313, 2.3366548910879685, 5.687963595282215, 0.664191526157207, 2.4472084800858678, -4.304421538394439, 10.60468718730647], [-0.1966161314824673, -0.6199771751608358, 0.8646729334110149, -2.3764776083581394, 0.44429942174217196, 0.7526534508599206, -0.48041785808921783, -2.8808256026272, -1.2416318547672534, -0.3396386803949095]]}